<?xml version="1.0"?>
<!-- DTD for the XMLBIF 0.3 format -->
<!DOCTYPE BIF [
	<!ELEMENT BIF ( NETWORK )*>
	      <!ATTLIST BIF VERSION CDATA #REQUIRED>
	<!ELEMENT NETWORK ( NAME, ( PROPERTY | VARIABLE | DEFINITION )* )>
	<!ELEMENT NAME (#PCDATA)>
	<!ELEMENT VARIABLE ( NAME, ( OUTCOME |  PROPERTY )* ) >
	      <!ATTLIST VARIABLE TYPE (nature|decision|utility) "nature">
	<!ELEMENT OUTCOME (#PCDATA)>
	<!ELEMENT DEFINITION ( FOR | GIVEN | TABLE | PROPERTY )* >
	<!ELEMENT FOR (#PCDATA)>
	<!ELEMENT GIVEN (#PCDATA)>
	<!ELEMENT TABLE (#PCDATA)>
	<!ELEMENT PROPERTY (#PCDATA)>
]>


<BIF VERSION="0.3">
<NETWORK>
<NAME>bayesian_with_clusters-weka.filters.unsupervised.attribute.NumericToNominal-Rfirst-last-weka.filters.unsupervised.attribute.ReplaceMissingValues</NAME>
<VARIABLE TYPE="nature">
	<NAME>number_of_reviews_range</NAME>
	<OUTCOME>&gt;20</OUTCOME>
	<OUTCOME>[0-20]</OUTCOME>
	<OUTCOME>&lt;0</OUTCOME>
	<PROPERTY>position = (4392,960)</PROPERTY>
</VARIABLE>
<VARIABLE TYPE="nature">
	<NAME>minimum_nights_range</NAME>
	<OUTCOME>[4-30]</OUTCOME>
	<OUTCOME>&lt;4</OUTCOME>
	<OUTCOME>&gt;30</OUTCOME>
	<PROPERTY>position = (12688,2016)</PROPERTY>
</VARIABLE>
<VARIABLE TYPE="nature">
	<NAME>price_range</NAME>
	<OUTCOME>medium</OUTCOME>
	<OUTCOME>low_cost</OUTCOME>
	<OUTCOME>expensive</OUTCOME>
	<OUTCOME>cheap</OUTCOME>
	<OUTCOME>luxury</OUTCOME>
	<PROPERTY>position = (9516,1440)</PROPERTY>
</VARIABLE>
<VARIABLE TYPE="nature">
	<NAME>host_is_superhost</NAME>
	<OUTCOME>f</OUTCOME>
	<OUTCOME>t</OUTCOME>
	<PROPERTY>position = (7076,96)</PROPERTY>
</VARIABLE>
<VARIABLE TYPE="nature">
	<NAME>host_has_profile_pic</NAME>
	<OUTCOME>t</OUTCOME>
	<OUTCOME>f</OUTCOME>
	<PROPERTY>position = (20740,2208)</PROPERTY>
</VARIABLE>
<VARIABLE TYPE="nature">
	<NAME>host_identity_verified</NAME>
	<OUTCOME>t</OUTCOME>
	<OUTCOME>f</OUTCOME>
	<PROPERTY>position = (17080,96)</PROPERTY>
</VARIABLE>
<VARIABLE TYPE="nature">
	<NAME>neighbourhood_cleansed</NAME>
	<OUTCOME>Bedford-Stuyvesant</OUTCOME>
	<OUTCOME>Sunset_Park</OUTCOME>
	<OUTCOME>Midtown</OUTCOME>
	<OUTCOME>Upper_West_Side</OUTCOME>
	<OUTCOME>South_Slope</OUTCOME>
	<OUTCOME>East_Harlem</OUTCOME>
	<OUTCOME>East_Village</OUTCOME>
	<OUTCOME>Harlem</OUTCOME>
	<OUTCOME>Flatbush</OUTCOME>
	<OUTCOME>Long_Island_City</OUTCOME>
	<OUTCOME>Jamaica</OUTCOME>
	<OUTCOME>Fort_Greene</OUTCOME>
	<OUTCOME>Williamsburg</OUTCOME>
	<OUTCOME>Greenpoint</OUTCOME>
	<OUTCOME>Nolita</OUTCOME>
	<OUTCOME>Chelsea</OUTCOME>
	<OUTCOME>Upper_East_Side</OUTCOME>
	<OUTCOME>Prospect_Heights</OUTCOME>
	<OUTCOME>Clinton_Hill</OUTCOME>
	<OUTCOME>Washington_Heights</OUTCOME>
	<OUTCOME>Kips_Bay</OUTCOME>
	<OUTCOME>Bushwick</OUTCOME>
	<OUTCOME>Carroll_Gardens</OUTCOME>
	<OUTCOME>West_Village</OUTCOME>
	<OUTCOME>Park_Slope</OUTCOME>
	<OUTCOME>Hells_Kitchen</OUTCOME>
	<OUTCOME>Prospect-Lefferts_Gardens</OUTCOME>
	<OUTCOME>Lower_East_Side</OUTCOME>
	<OUTCOME>East_Flatbush</OUTCOME>
	<OUTCOME>Boerum_Hill</OUTCOME>
	<OUTCOME>Sunnyside</OUTCOME>
	<OUTCOME>St._George</OUTCOME>
	<OUTCOME>Tribeca</OUTCOME>
	<OUTCOME>Ridgewood</OUTCOME>
	<OUTCOME>Mott_Haven</OUTCOME>
	<OUTCOME>Gowanus</OUTCOME>
	<OUTCOME>Ditmars_Steinway</OUTCOME>
	<OUTCOME>Middle_Village</OUTCOME>
	<OUTCOME>Brooklyn_Heights</OUTCOME>
	<OUTCOME>Flatiron_District</OUTCOME>
	<OUTCOME>Windsor_Terrace</OUTCOME>
	<OUTCOME>Chinatown</OUTCOME>
	<OUTCOME>Greenwich_Village</OUTCOME>
	<OUTCOME>Tompkinsville</OUTCOME>
	<OUTCOME>Clason_Point</OUTCOME>
	<OUTCOME>Eastchester</OUTCOME>
	<OUTCOME>Inwood</OUTCOME>
	<OUTCOME>Crown_Heights</OUTCOME>
	<OUTCOME>Astoria</OUTCOME>
	<OUTCOME>Kingsbridge</OUTCOME>
	<OUTCOME>Rockaway_Beach</OUTCOME>
	<OUTCOME>Forest_Hills</OUTCOME>
	<OUTCOME>Murray_Hill</OUTCOME>
	<OUTCOME>University_Heights</OUTCOME>
	<OUTCOME>Gravesend</OUTCOME>
	<OUTCOME>Allerton</OUTCOME>
	<OUTCOME>East_New_York</OUTCOME>
	<OUTCOME>Stuyvesant_Town</OUTCOME>
	<OUTCOME>Theater_District</OUTCOME>
	<OUTCOME>Sheepshead_Bay</OUTCOME>
	<OUTCOME>Fort_Hamilton</OUTCOME>
	<OUTCOME>Bensonhurst</OUTCOME>
	<OUTCOME>Shore_Acres</OUTCOME>
	<OUTCOME>Richmond_Hill</OUTCOME>
	<OUTCOME>Gramercy</OUTCOME>
	<OUTCOME>Elmhurst</OUTCOME>
	<OUTCOME>Cypress_Hills</OUTCOME>
	<OUTCOME>Arrochar</OUTCOME>
	<OUTCOME>Financial_District</OUTCOME>
	<OUTCOME>Rego_Park</OUTCOME>
	<OUTCOME>Kensington</OUTCOME>
	<OUTCOME>Woodside</OUTCOME>
	<OUTCOME>Morningside_Heights</OUTCOME>
	<OUTCOME>Little_Italy</OUTCOME>
	<OUTCOME>SoHo</OUTCOME>
	<OUTCOME>Clifton</OUTCOME>
	<OUTCOME>Bay_Ridge</OUTCOME>
	<OUTCOME>Maspeth</OUTCOME>
	<OUTCOME>Stapleton</OUTCOME>
	<OUTCOME>Briarwood</OUTCOME>
	<OUTCOME>Brighton_Beach</OUTCOME>
	<OUTCOME>Jackson_Heights</OUTCOME>
	<OUTCOME>Battery_Park_City</OUTCOME>
	<OUTCOME>Two_Bridges</OUTCOME>
	<OUTCOME>Bayside</OUTCOME>
	<OUTCOME>Cobble_Hill</OUTCOME>
	<OUTCOME>New_Springville</OUTCOME>
	<OUTCOME>Flushing</OUTCOME>
	<OUTCOME>Red_Hook</OUTCOME>
	<OUTCOME>Civic_Center</OUTCOME>
	<OUTCOME>Tottenville</OUTCOME>
	<OUTCOME>NoHo</OUTCOME>
	<OUTCOME>Columbia_St</OUTCOME>
	<OUTCOME>Glendale</OUTCOME>
	<OUTCOME>Mariners_Harbor</OUTCOME>
	<OUTCOME>East_Elmhurst</OUTCOME>
	<OUTCOME>Concord</OUTCOME>
	<OUTCOME>Downtown_Brooklyn</OUTCOME>
	<OUTCOME>Melrose</OUTCOME>
	<OUTCOME>Kew_Gardens</OUTCOME>
	<OUTCOME>College_Point</OUTCOME>
	<OUTCOME>Vinegar_Hill</OUTCOME>
	<OUTCOME>DUMBO</OUTCOME>
	<OUTCOME>City_Island</OUTCOME>
	<OUTCOME>Port_Morris</OUTCOME>
	<OUTCOME>Longwood</OUTCOME>
	<OUTCOME>Queens_Village</OUTCOME>
	<OUTCOME>Canarsie</OUTCOME>
	<OUTCOME>Williamsbridge</OUTCOME>
	<OUTCOME>Soundview</OUTCOME>
	<OUTCOME>Woodhaven</OUTCOME>
	<OUTCOME>Co-op_City</OUTCOME>
	<OUTCOME>Parkchester</OUTCOME>
	<OUTCOME>Bronxdale</OUTCOME>
	<OUTCOME>Sea_Gate</OUTCOME>
	<OUTCOME>Spuyten_Duyvil</OUTCOME>
	<OUTCOME>Bay_Terrace</OUTCOME>
	<OUTCOME>Ozone_Park</OUTCOME>
	<OUTCOME>Borough_Park</OUTCOME>
	<OUTCOME>Norwood</OUTCOME>
	<OUTCOME>Concourse</OUTCOME>
	<OUTCOME>Claremont_Village</OUTCOME>
	<OUTCOME>Concourse_Village</OUTCOME>
	<OUTCOME>Fieldston</OUTCOME>
	<OUTCOME>Huguenot</OUTCOME>
	<OUTCOME>Wakefield</OUTCOME>
	<OUTCOME>Brownsville</OUTCOME>
	<OUTCOME>Mount_Hope</OUTCOME>
	<OUTCOME>Arverne</OUTCOME>
	<OUTCOME>Flatlands</OUTCOME>
	<OUTCOME>Roosevelt_Island</OUTCOME>
	<OUTCOME>Lighthouse_Hill</OUTCOME>
	<OUTCOME>Unionport</OUTCOME>
	<OUTCOME>Midwood</OUTCOME>
	<OUTCOME>Randall_Manor</OUTCOME>
	<OUTCOME>Howard_Beach</OUTCOME>
	<OUTCOME>South_Ozone_Park</OUTCOME>
	<OUTCOME>Kew_Gardens_Hills</OUTCOME>
	<OUTCOME>Jamaica_Estates</OUTCOME>
	<OUTCOME>Mount_Eden</OUTCOME>
	<OUTCOME>Bellerose</OUTCOME>
	<OUTCOME>Highbridge</OUTCOME>
	<OUTCOME>Fresh_Meadows</OUTCOME>
	<OUTCOME>Morris_Park</OUTCOME>
	<OUTCOME>Pelham_Gardens</OUTCOME>
	<OUTCOME>Far_Rockaway</OUTCOME>
	<OUTCOME>East_Morrisania</OUTCOME>
	<OUTCOME>Corona</OUTCOME>
	<OUTCOME>Springfield_Gardens</OUTCOME>
	<OUTCOME>Tremont</OUTCOME>
	<OUTCOME>West_Brighton</OUTCOME>
	<OUTCOME>Manhattan_Beach</OUTCOME>
	<OUTCOME>Marble_Hill</OUTCOME>
	<OUTCOME>Fordham</OUTCOME>
	<OUTCOME>Dongan_Hills</OUTCOME>
	<OUTCOME>Belmont</OUTCOME>
	<OUTCOME>Castleton_Corners</OUTCOME>
	<OUTCOME>Laurelton</OUTCOME>
	<OUTCOME>Hunts_Point</OUTCOME>
	<OUTCOME>Great_Kills</OUTCOME>
	<OUTCOME>Silver_Lake</OUTCOME>
	<OUTCOME>Morrisania</OUTCOME>
	<OUTCOME>Grymes_Hill</OUTCOME>
	<OUTCOME>Holliswood</OUTCOME>
	<OUTCOME>Riverdale</OUTCOME>
	<OUTCOME>Edgemere</OUTCOME>
	<OUTCOME>New_Brighton</OUTCOME>
	<OUTCOME>Baychester</OUTCOME>
	<OUTCOME>Belle_Harbor</OUTCOME>
	<OUTCOME>Bergen_Beach</OUTCOME>
	<OUTCOME>Cambria_Heights</OUTCOME>
	<OUTCOME>Richmondtown</OUTCOME>
	<OUTCOME>Olinville</OUTCOME>
	<OUTCOME>Dyker_Heights</OUTCOME>
	<OUTCOME>Navy_Yard</OUTCOME>
	<OUTCOME>Coney_Island</OUTCOME>
	<OUTCOME>St._Albans</OUTCOME>
	<OUTCOME>Rosedale</OUTCOME>
	<OUTCOME>Morris_Heights</OUTCOME>
	<OUTCOME>Howland_Hook</OUTCOME>
	<OUTCOME>South_Beach</OUTCOME>
	<OUTCOME>Bath_Beach</OUTCOME>
	<OUTCOME>Midland_Beach</OUTCOME>
	<OUTCOME>Oakwood</OUTCOME>
	<OUTCOME>Hollis</OUTCOME>
	<OUTCOME>Schuylerville</OUTCOME>
	<OUTCOME>Pelham_Bay</OUTCOME>
	<OUTCOME>Edenwald</OUTCOME>
	<OUTCOME>North_Riverdale</OUTCOME>
	<OUTCOME>Emerson_Hill</OUTCOME>
	<OUTCOME>Fort_Wadsworth</OUTCOME>
	<OUTCOME>Westchester_Square</OUTCOME>
	<OUTCOME>Van_Nest</OUTCOME>
	<OUTCOME>Arden_Heights</OUTCOME>
	<OUTCOME>Bulls_Head</OUTCOME>
	<OUTCOME>Woodlawn</OUTCOME>
	<OUTCOME>Grant_City</OUTCOME>
	<OUTCOME>Port_Richmond</OUTCOME>
	<OUTCOME>Throgs_Neck</OUTCOME>
	<OUTCOME>Bayswater</OUTCOME>
	<OUTCOME>Willowbrook</OUTCOME>
	<OUTCOME>Douglaston</OUTCOME>
	<OUTCOME>New_Dorp_Beach</OUTCOME>
	<OUTCOME>Whitestone</OUTCOME>
	<OUTCOME>Jamaica_Hills</OUTCOME>
	<OUTCOME>Rosebank</OUTCOME>
	<OUTCOME>Princes_Bay</OUTCOME>
	<OUTCOME>Eltingville</OUTCOME>
	<OUTCOME>Mill_Basin</OUTCOME>
	<OUTCOME>West_Farms</OUTCOME>
	<OUTCOME>Rossville</OUTCOME>
	<OUTCOME>Castle_Hill</OUTCOME>
	<OUTCOME>Little_Neck</OUTCOME>
	<OUTCOME>New_Dorp</OUTCOME>
	<OUTCOME>Westerleigh</OUTCOME>
	<OUTCOME>Country_Club</OUTCOME>
	<OUTCOME>Chelsea_Staten_Island</OUTCOME>
	<OUTCOME>Glen_Oaks</OUTCOME>
	<PROPERTY>position = (9272,576)</PROPERTY>
</VARIABLE>
<VARIABLE TYPE="nature">
	<NAME>property_type</NAME>
	<OUTCOME>Private_room_in_apartment</OUTCOME>
	<OUTCOME>Entire_apartment</OUTCOME>
	<OUTCOME>Private_room_in_townhouse</OUTCOME>
	<OUTCOME>Entire_loft</OUTCOME>
	<OUTCOME>Private_room_in_house</OUTCOME>
	<OUTCOME>Entire_condominium</OUTCOME>
	<OUTCOME>Entire_house</OUTCOME>
	<OUTCOME>Entire_townhouse</OUTCOME>
	<PROPERTY>position = (7808,1056)</PROPERTY>
</VARIABLE>
<VARIABLE TYPE="nature">
	<NAME>room_type</NAME>
	<OUTCOME>Private_room</OUTCOME>
	<OUTCOME>Entire_home/apt</OUTCOME>
	<PROPERTY>position = (8052,1152)</PROPERTY>
</VARIABLE>
<VARIABLE TYPE="nature">
	<NAME>accommodates</NAME>
	<OUTCOME>1</OUTCOME>
	<OUTCOME>2</OUTCOME>
	<OUTCOME>3</OUTCOME>
	<OUTCOME>4</OUTCOME>
	<OUTCOME>5</OUTCOME>
	<OUTCOME>6</OUTCOME>
	<OUTCOME>7</OUTCOME>
	<OUTCOME>8</OUTCOME>
	<OUTCOME>9</OUTCOME>
	<OUTCOME>10</OUTCOME>
	<OUTCOME>11</OUTCOME>
	<OUTCOME>12</OUTCOME>
	<OUTCOME>13</OUTCOME>
	<OUTCOME>14</OUTCOME>
	<OUTCOME>15</OUTCOME>
	<OUTCOME>16</OUTCOME>
	<PROPERTY>position = (12932,1152)</PROPERTY>
</VARIABLE>
<VARIABLE TYPE="nature">
	<NAME>bathrooms</NAME>
	<OUTCOME>0</OUTCOME>
	<OUTCOME>0.5</OUTCOME>
	<OUTCOME>1</OUTCOME>
	<OUTCOME>1.5</OUTCOME>
	<OUTCOME>2</OUTCOME>
	<OUTCOME>2.5</OUTCOME>
	<OUTCOME>3</OUTCOME>
	<OUTCOME>3.5</OUTCOME>
	<OUTCOME>4</OUTCOME>
	<OUTCOME>4.5</OUTCOME>
	<OUTCOME>5</OUTCOME>
	<OUTCOME>5.5</OUTCOME>
	<OUTCOME>6</OUTCOME>
	<OUTCOME>6.5</OUTCOME>
	<OUTCOME>7</OUTCOME>
	<OUTCOME>7.5</OUTCOME>
	<OUTCOME>8</OUTCOME>
	<OUTCOME>15.5</OUTCOME>
	<PROPERTY>position = (3172,1440)</PROPERTY>
</VARIABLE>
<VARIABLE TYPE="nature">
	<NAME>bedrooms</NAME>
	<OUTCOME>1</OUTCOME>
	<OUTCOME>2</OUTCOME>
	<OUTCOME>3</OUTCOME>
	<OUTCOME>4</OUTCOME>
	<OUTCOME>5</OUTCOME>
	<OUTCOME>6</OUTCOME>
	<OUTCOME>7</OUTCOME>
	<OUTCOME>8</OUTCOME>
	<OUTCOME>9</OUTCOME>
	<OUTCOME>10</OUTCOME>
	<OUTCOME>13</OUTCOME>
	<OUTCOME>14</OUTCOME>
	<PROPERTY>position = (13420,1344)</PROPERTY>
</VARIABLE>
<VARIABLE TYPE="nature">
	<NAME>beds</NAME>
	<OUTCOME>0</OUTCOME>
	<OUTCOME>1</OUTCOME>
	<OUTCOME>2</OUTCOME>
	<OUTCOME>3</OUTCOME>
	<OUTCOME>4</OUTCOME>
	<OUTCOME>5</OUTCOME>
	<OUTCOME>6</OUTCOME>
	<OUTCOME>7</OUTCOME>
	<OUTCOME>8</OUTCOME>
	<OUTCOME>9</OUTCOME>
	<OUTCOME>10</OUTCOME>
	<OUTCOME>11</OUTCOME>
	<OUTCOME>12</OUTCOME>
	<OUTCOME>13</OUTCOME>
	<OUTCOME>15</OUTCOME>
	<OUTCOME>16</OUTCOME>
	<OUTCOME>17</OUTCOME>
	<OUTCOME>18</OUTCOME>
	<OUTCOME>24</OUTCOME>
	<OUTCOME>42</OUTCOME>
	<PROPERTY>position = (13176,1248)</PROPERTY>
</VARIABLE>
<VARIABLE TYPE="nature">
	<NAME>has_availability</NAME>
	<OUTCOME>t</OUTCOME>
	<OUTCOME>f</OUTCOME>
	<PROPERTY>position = (1708,1344)</PROPERTY>
</VARIABLE>
<VARIABLE TYPE="nature">
	<NAME>instant_bookable</NAME>
	<OUTCOME>f</OUTCOME>
	<OUTCOME>t</OUTCOME>
	<PROPERTY>position = (1220,1440)</PROPERTY>
</VARIABLE>
<VARIABLE TYPE="nature">
	<NAME>avg_rating</NAME>
	<OUTCOME>0</OUTCOME>
	<OUTCOME>1</OUTCOME>
	<PROPERTY>position = (12444,0)</PROPERTY>
</VARIABLE>
<VARIABLE TYPE="nature">
	<NAME>air_conditioning</NAME>
	<OUTCOME>0</OUTCOME>
	<OUTCOME>1</OUTCOME>
	<PROPERTY>position = (7320,1824)</PROPERTY>
</VARIABLE>
<VARIABLE TYPE="nature">
	<NAME>long_term_stays_allowed</NAME>
	<OUTCOME>0</OUTCOME>
	<OUTCOME>1</OUTCOME>
	<PROPERTY>position = (10736,1920)</PROPERTY>
</VARIABLE>
<VARIABLE TYPE="nature">
	<NAME>heating</NAME>
	<OUTCOME>0</OUTCOME>
	<OUTCOME>1</OUTCOME>
	<PROPERTY>position = (5856,1728)</PROPERTY>
</VARIABLE>
<VARIABLE TYPE="nature">
	<NAME>wifi</NAME>
	<OUTCOME>0</OUTCOME>
	<OUTCOME>1</OUTCOME>
	<PROPERTY>position = (2684,1824)</PROPERTY>
</VARIABLE>
<VARIABLE TYPE="nature">
	<NAME>kitchen</NAME>
	<OUTCOME>0</OUTCOME>
	<OUTCOME>1</OUTCOME>
	<PROPERTY>position = (6588,1152)</PROPERTY>
</VARIABLE>
<VARIABLE TYPE="nature">
	<NAME>smoke_alarm</NAME>
	<OUTCOME>0</OUTCOME>
	<OUTCOME>1</OUTCOME>
	<PROPERTY>position = (15128,1632)</PROPERTY>
</VARIABLE>
<VARIABLE TYPE="nature">
	<NAME>dryer</NAME>
	<OUTCOME>0</OUTCOME>
	<OUTCOME>1</OUTCOME>
	<PROPERTY>position = (12200,384)</PROPERTY>
</VARIABLE>
<VARIABLE TYPE="nature">
	<NAME>tv_with_standard_cable</NAME>
	<OUTCOME>0</OUTCOME>
	<OUTCOME>1</OUTCOME>
	<PROPERTY>position = (7808,2016)</PROPERTY>
</VARIABLE>
<VARIABLE TYPE="nature">
	<NAME>washer</NAME>
	<OUTCOME>0</OUTCOME>
	<OUTCOME>1</OUTCOME>
	<PROPERTY>position = (8296,288)</PROPERTY>
</VARIABLE>
<VARIABLE TYPE="nature">
	<NAME>carbon_monoxide_alarm</NAME>
	<OUTCOME>0</OUTCOME>
	<OUTCOME>1</OUTCOME>
	<PROPERTY>position = (14152,1728)</PROPERTY>
</VARIABLE>
<VARIABLE TYPE="nature">
	<NAME>cable_tv</NAME>
	<OUTCOME>0</OUTCOME>
	<OUTCOME>1</OUTCOME>
	<PROPERTY>position = (5612,1536)</PROPERTY>
</VARIABLE>
<VARIABLE TYPE="nature">
	<NAME>tv</NAME>
	<OUTCOME>0</OUTCOME>
	<OUTCOME>1</OUTCOME>
	<PROPERTY>position = (5612,1920)</PROPERTY>
</VARIABLE>
<VARIABLE TYPE="nature">
	<NAME>extra_pillows_and_blankets</NAME>
	<OUTCOME>0</OUTCOME>
	<OUTCOME>1</OUTCOME>
	<PROPERTY>position = (11956,1056)</PROPERTY>
</VARIABLE>
<VARIABLE TYPE="nature">
	<NAME>essentials</NAME>
	<OUTCOME>0</OUTCOME>
	<OUTCOME>1</OUTCOME>
	<PROPERTY>position = (5612,1824)</PROPERTY>
</VARIABLE>
<VARIABLE TYPE="nature">
	<NAME>lock_on_bedroom_door</NAME>
	<OUTCOME>0</OUTCOME>
	<OUTCOME>1</OUTCOME>
	<PROPERTY>position = (3660,1632)</PROPERTY>
</VARIABLE>
<VARIABLE TYPE="nature">
	<NAME>refrigerator</NAME>
	<OUTCOME>0</OUTCOME>
	<OUTCOME>1</OUTCOME>
	<PROPERTY>position = (11956,864)</PROPERTY>
</VARIABLE>
<VARIABLE TYPE="nature">
	<NAME>hot_water</NAME>
	<OUTCOME>0</OUTCOME>
	<OUTCOME>1</OUTCOME>
	<PROPERTY>position = (4880,1248)</PROPERTY>
</VARIABLE>
<VARIABLE TYPE="nature">
	<NAME>shampoo</NAME>
	<OUTCOME>0</OUTCOME>
	<OUTCOME>1</OUTCOME>
	<PROPERTY>position = (7076,1728)</PROPERTY>
</VARIABLE>
<VARIABLE TYPE="nature">
	<NAME>free_street_parking</NAME>
	<OUTCOME>0</OUTCOME>
	<OUTCOME>1</OUTCOME>
	<PROPERTY>position = (19032,1344)</PROPERTY>
</VARIABLE>
<VARIABLE TYPE="nature">
	<NAME>luggage_dropoff_allowed</NAME>
	<OUTCOME>0</OUTCOME>
	<OUTCOME>1</OUTCOME>
	<PROPERTY>position = (16592,1440)</PROPERTY>
</VARIABLE>
<VARIABLE TYPE="nature">
	<NAME>paid_parking_off_premises</NAME>
	<OUTCOME>0</OUTCOME>
	<OUTCOME>1</OUTCOME>
	<PROPERTY>position = (4392,1344)</PROPERTY>
</VARIABLE>
<VARIABLE TYPE="nature">
	<NAME>microwave</NAME>
	<OUTCOME>0</OUTCOME>
	<OUTCOME>1</OUTCOME>
	<PROPERTY>position = (4880,1056)</PROPERTY>
</VARIABLE>
<VARIABLE TYPE="nature">
	<NAME>hair_dryer</NAME>
	<OUTCOME>0</OUTCOME>
	<OUTCOME>1</OUTCOME>
	<PROPERTY>position = (4392,1440)</PROPERTY>
</VARIABLE>
<VARIABLE TYPE="nature">
	<NAME>bed_linens</NAME>
	<OUTCOME>0</OUTCOME>
	<OUTCOME>1</OUTCOME>
	<PROPERTY>position = (14396,1152)</PROPERTY>
</VARIABLE>
<VARIABLE TYPE="nature">
	<NAME>iron</NAME>
	<OUTCOME>0</OUTCOME>
	<OUTCOME>1</OUTCOME>
	<PROPERTY>position = (6100,1344)</PROPERTY>
</VARIABLE>
<VARIABLE TYPE="nature">
	<NAME>hangers</NAME>
	<OUTCOME>0</OUTCOME>
	<OUTCOME>1</OUTCOME>
	<PROPERTY>position = (3416,1536)</PROPERTY>
</VARIABLE>
<VARIABLE TYPE="nature">
	<NAME>fire_extinguisher</NAME>
	<OUTCOME>0</OUTCOME>
	<OUTCOME>1</OUTCOME>
	<PROPERTY>position = (12444,1536)</PROPERTY>
</VARIABLE>
<VARIABLE TYPE="nature">
	<NAME>elevator</NAME>
	<OUTCOME>0</OUTCOME>
	<OUTCOME>1</OUTCOME>
	<PROPERTY>position = (11712,480)</PROPERTY>
</VARIABLE>
<VARIABLE TYPE="nature">
	<NAME>dedicated_workspace</NAME>
	<OUTCOME>0</OUTCOME>
	<OUTCOME>1</OUTCOME>
	<PROPERTY>position = (2196,1632)</PROPERTY>
</VARIABLE>
<VARIABLE TYPE="nature">
	<NAME>host_greets_you</NAME>
	<OUTCOME>0</OUTCOME>
	<OUTCOME>1</OUTCOME>
	<PROPERTY>position = (16836,2016)</PROPERTY>
</VARIABLE>
<VARIABLE TYPE="nature">
	<NAME>breakfast</NAME>
	<OUTCOME>0</OUTCOME>
	<OUTCOME>1</OUTCOME>
	<PROPERTY>position = (6344,1824)</PROPERTY>
</VARIABLE>
<VARIABLE TYPE="nature">
	<NAME>coffee_maker</NAME>
	<OUTCOME>0</OUTCOME>
	<OUTCOME>1</OUTCOME>
	<PROPERTY>position = (7320,960)</PROPERTY>
</VARIABLE>
<VARIABLE TYPE="nature">
	<NAME>pool</NAME>
	<OUTCOME>0</OUTCOME>
	<OUTCOME>1</OUTCOME>
	<PROPERTY>position = (23424,672)</PROPERTY>
</VARIABLE>
<VARIABLE TYPE="nature">
	<NAME>clothing_storage:_closet</NAME>
	<OUTCOME>0</OUTCOME>
	<OUTCOME>1</OUTCOME>
	<PROPERTY>position = (10736,1824)</PROPERTY>
</VARIABLE>
<VARIABLE TYPE="nature">
	<NAME>hot_water_kettle</NAME>
	<OUTCOME>0</OUTCOME>
	<OUTCOME>1</OUTCOME>
	<PROPERTY>position = (11468,1440)</PROPERTY>
</VARIABLE>
<VARIABLE TYPE="nature">
	<NAME>lockbox</NAME>
	<OUTCOME>0</OUTCOME>
	<OUTCOME>1</OUTCOME>
	<PROPERTY>position = (23912,2112)</PROPERTY>
</VARIABLE>
<VARIABLE TYPE="nature">
	<NAME>body_soap</NAME>
	<OUTCOME>0</OUTCOME>
	<OUTCOME>1</OUTCOME>
	<PROPERTY>position = (12200,1440)</PROPERTY>
</VARIABLE>
<VARIABLE TYPE="nature">
	<NAME>conditioner</NAME>
	<OUTCOME>0</OUTCOME>
	<OUTCOME>1</OUTCOME>
	<PROPERTY>position = (11956,1536)</PROPERTY>
</VARIABLE>
<VARIABLE TYPE="nature">
	<NAME>pour-over_coffee</NAME>
	<OUTCOME>0</OUTCOME>
	<OUTCOME>1</OUTCOME>
	<PROPERTY>position = (8296,1440)</PROPERTY>
</VARIABLE>
<VARIABLE TYPE="nature">
	<NAME>outdoor_furniture</NAME>
	<OUTCOME>0</OUTCOME>
	<OUTCOME>1</OUTCOME>
	<PROPERTY>position = (14884,2304)</PROPERTY>
</VARIABLE>
<VARIABLE TYPE="nature">
	<NAME>patio_or_balcony</NAME>
	<OUTCOME>0</OUTCOME>
	<OUTCOME>1</OUTCOME>
	<PROPERTY>position = (12688,2112)</PROPERTY>
</VARIABLE>
<VARIABLE TYPE="nature">
	<NAME>dining_table</NAME>
	<OUTCOME>0</OUTCOME>
	<OUTCOME>1</OUTCOME>
	<PROPERTY>position = (9760,1632)</PROPERTY>
</VARIABLE>
<VARIABLE TYPE="nature">
	<NAME>room-darkening_shades</NAME>
	<OUTCOME>0</OUTCOME>
	<OUTCOME>1</OUTCOME>
	<PROPERTY>position = (18544,1728)</PROPERTY>
</VARIABLE>
<VARIABLE TYPE="nature">
	<NAME>toaster</NAME>
	<OUTCOME>0</OUTCOME>
	<OUTCOME>1</OUTCOME>
	<PROPERTY>position = (9760,1824)</PROPERTY>
</VARIABLE>
<VARIABLE TYPE="nature">
	<NAME>shower_gel</NAME>
	<OUTCOME>0</OUTCOME>
	<OUTCOME>1</OUTCOME>
	<PROPERTY>position = (12444,1632)</PROPERTY>
</VARIABLE>
<VARIABLE TYPE="nature">
	<NAME>beach_essentials</NAME>
	<OUTCOME>0</OUTCOME>
	<OUTCOME>1</OUTCOME>
	<PROPERTY>position = (5124,2016)</PROPERTY>
</VARIABLE>
<VARIABLE TYPE="nature">
	<NAME>portable_fans</NAME>
	<OUTCOME>0</OUTCOME>
	<OUTCOME>1</OUTCOME>
	<PROPERTY>position = (7564,1440)</PROPERTY>
</VARIABLE>
<VARIABLE TYPE="nature">
	<NAME>first_aid_kit</NAME>
	<OUTCOME>0</OUTCOME>
	<OUTCOME>1</OUTCOME>
	<PROPERTY>position = (9272,1440)</PROPERTY>
</VARIABLE>
<VARIABLE TYPE="nature">
	<NAME>dishwasher</NAME>
	<OUTCOME>0</OUTCOME>
	<OUTCOME>1</OUTCOME>
	<PROPERTY>position = (4880,576)</PROPERTY>
</VARIABLE>
<VARIABLE TYPE="nature">
	<NAME>cleaning_products</NAME>
	<OUTCOME>0</OUTCOME>
	<OUTCOME>1</OUTCOME>
	<PROPERTY>position = (11224,1536)</PROPERTY>
</VARIABLE>
<VARIABLE TYPE="nature">
	<NAME>backyard</NAME>
	<OUTCOME>0</OUTCOME>
	<OUTCOME>1</OUTCOME>
	<PROPERTY>position = (20496,2016)</PROPERTY>
</VARIABLE>
<VARIABLE TYPE="nature">
	<NAME>dishes_and_silverware</NAME>
	<OUTCOME>0</OUTCOME>
	<OUTCOME>1</OUTCOME>
	<PROPERTY>position = (10736,768)</PROPERTY>
</VARIABLE>
<VARIABLE TYPE="nature">
	<NAME>laundromat_nearby</NAME>
	<OUTCOME>0</OUTCOME>
	<OUTCOME>1</OUTCOME>
	<PROPERTY>position = (11468,1248)</PROPERTY>
</VARIABLE>
<VARIABLE TYPE="nature">
	<NAME>outdoor_dining_area</NAME>
	<OUTCOME>0</OUTCOME>
	<OUTCOME>1</OUTCOME>
	<PROPERTY>position = (11468,2208)</PROPERTY>
</VARIABLE>
<VARIABLE TYPE="nature">
	<NAME>safe</NAME>
	<OUTCOME>0</OUTCOME>
	<OUTCOME>1</OUTCOME>
	<PROPERTY>position = (13176,1824)</PROPERTY>
</VARIABLE>
<VARIABLE TYPE="nature">
	<NAME>stove</NAME>
	<OUTCOME>0</OUTCOME>
	<OUTCOME>1</OUTCOME>
	<PROPERTY>position = (6588,576)</PROPERTY>
</VARIABLE>
<VARIABLE TYPE="nature">
	<NAME>oven</NAME>
	<OUTCOME>0</OUTCOME>
	<OUTCOME>1</OUTCOME>
	<PROPERTY>position = (9760,480)</PROPERTY>
</VARIABLE>
<VARIABLE TYPE="nature">
	<NAME>private_entrance</NAME>
	<OUTCOME>0</OUTCOME>
	<OUTCOME>1</OUTCOME>
	<PROPERTY>position = (3904,1632)</PROPERTY>
</VARIABLE>
<VARIABLE TYPE="nature">
	<NAME>cooking_basics</NAME>
	<OUTCOME>0</OUTCOME>
	<OUTCOME>1</OUTCOME>
	<PROPERTY>position = (6344,672)</PROPERTY>
</VARIABLE>
<VARIABLE TYPE="nature">
	<NAME>ceiling_fan</NAME>
	<OUTCOME>0</OUTCOME>
	<OUTCOME>1</OUTCOME>
	<PROPERTY>position = (6832,1440)</PROPERTY>
</VARIABLE>
<VARIABLE TYPE="nature">
	<NAME>baking_sheet</NAME>
	<OUTCOME>0</OUTCOME>
	<OUTCOME>1</OUTCOME>
	<PROPERTY>position = (12932,1728)</PROPERTY>
</VARIABLE>
<VARIABLE TYPE="nature">
	<NAME>freezer</NAME>
	<OUTCOME>0</OUTCOME>
	<OUTCOME>1</OUTCOME>
	<PROPERTY>position = (13664,1344)</PROPERTY>
</VARIABLE>
<VARIABLE TYPE="nature">
	<NAME>mini_fridge</NAME>
	<OUTCOME>0</OUTCOME>
	<OUTCOME>1</OUTCOME>
	<PROPERTY>position = (8052,1440)</PROPERTY>
</VARIABLE>
<VARIABLE TYPE="nature">
	<NAME>hot_tub</NAME>
	<OUTCOME>0</OUTCOME>
	<OUTCOME>1</OUTCOME>
	<PROPERTY>position = (23668,2208)</PROPERTY>
</VARIABLE>
<VARIABLE TYPE="nature">
	<NAME>window_ac_unit</NAME>
	<OUTCOME>0</OUTCOME>
	<OUTCOME>1</OUTCOME>
	<PROPERTY>position = (10980,1920)</PROPERTY>
</VARIABLE>
<VARIABLE TYPE="nature">
	<NAME>single_level_home</NAME>
	<OUTCOME>0</OUTCOME>
	<OUTCOME>1</OUTCOME>
	<PROPERTY>position = (10004,1152)</PROPERTY>
</VARIABLE>
<VARIABLE TYPE="nature">
	<NAME>babysitter_recommendations</NAME>
	<OUTCOME>0</OUTCOME>
	<OUTCOME>1</OUTCOME>
	<PROPERTY>position = (15860,1824)</PROPERTY>
</VARIABLE>
<VARIABLE TYPE="nature">
	<NAME>children_s_books_and_toys</NAME>
	<OUTCOME>0</OUTCOME>
	<OUTCOME>1</OUTCOME>
	<PROPERTY>position = (17568,1728)</PROPERTY>
</VARIABLE>
<VARIABLE TYPE="nature">
	<NAME>children_s_dinnerware</NAME>
	<OUTCOME>0</OUTCOME>
	<OUTCOME>1</OUTCOME>
	<PROPERTY>position = (16104,2016)</PROPERTY>
</VARIABLE>
<VARIABLE TYPE="nature">
	<NAME>pack__n_play/travel_crib</NAME>
	<OUTCOME>0</OUTCOME>
	<OUTCOME>1</OUTCOME>
	<PROPERTY>position = (18544,1920)</PROPERTY>
</VARIABLE>
<VARIABLE TYPE="nature">
	<NAME>keypad</NAME>
	<OUTCOME>0</OUTCOME>
	<OUTCOME>1</OUTCOME>
	<PROPERTY>position = (18300,1920)</PROPERTY>
</VARIABLE>
<VARIABLE TYPE="nature">
	<NAME>ethernet_connection</NAME>
	<OUTCOME>0</OUTCOME>
	<OUTCOME>1</OUTCOME>
	<PROPERTY>position = (13908,1440)</PROPERTY>
</VARIABLE>
<VARIABLE TYPE="nature">
	<NAME>bathtub</NAME>
	<OUTCOME>0</OUTCOME>
	<OUTCOME>1</OUTCOME>
	<PROPERTY>position = (15372,1632)</PROPERTY>
</VARIABLE>
<VARIABLE TYPE="nature">
	<NAME>building_staff</NAME>
	<OUTCOME>0</OUTCOME>
	<OUTCOME>1</OUTCOME>
	<PROPERTY>position = (25132,2208)</PROPERTY>
</VARIABLE>
<VARIABLE TYPE="nature">
	<NAME>central_heating</NAME>
	<OUTCOME>0</OUTCOME>
	<OUTCOME>1</OUTCOME>
	<PROPERTY>position = (7564,1632)</PROPERTY>
</VARIABLE>
<VARIABLE TYPE="nature">
	<NAME>gym</NAME>
	<OUTCOME>0</OUTCOME>
	<OUTCOME>1</OUTCOME>
	<PROPERTY>position = (20984,576)</PROPERTY>
</VARIABLE>
<VARIABLE TYPE="nature">
	<NAME>sound_system</NAME>
	<OUTCOME>0</OUTCOME>
	<OUTCOME>1</OUTCOME>
	<PROPERTY>position = (13908,1536)</PROPERTY>
</VARIABLE>
<VARIABLE TYPE="nature">
	<NAME>wine_glasses</NAME>
	<OUTCOME>0</OUTCOME>
	<OUTCOME>1</OUTCOME>
	<PROPERTY>position = (10492,1728)</PROPERTY>
</VARIABLE>
<VARIABLE TYPE="nature">
	<NAME>baby_safety_gates</NAME>
	<OUTCOME>0</OUTCOME>
	<OUTCOME>1</OUTCOME>
	<PROPERTY>position = (17812,1920)</PROPERTY>
</VARIABLE>
<VARIABLE TYPE="nature">
	<NAME>changing_table</NAME>
	<OUTCOME>0</OUTCOME>
	<OUTCOME>1</OUTCOME>
	<PROPERTY>position = (16348,2112)</PROPERTY>
</VARIABLE>
<VARIABLE TYPE="nature">
	<NAME>outlet_covers</NAME>
	<OUTCOME>0</OUTCOME>
	<OUTCOME>1</OUTCOME>
	<PROPERTY>position = (17568,1920)</PROPERTY>
</VARIABLE>
<VARIABLE TYPE="nature">
	<NAME>high_chair</NAME>
	<OUTCOME>0</OUTCOME>
	<OUTCOME>1</OUTCOME>
	<PROPERTY>position = (18788,1824)</PROPERTY>
</VARIABLE>
<VARIABLE TYPE="nature">
	<NAME>crib</NAME>
	<OUTCOME>0</OUTCOME>
	<OUTCOME>1</OUTCOME>
	<PROPERTY>position = (18056,2016)</PROPERTY>
</VARIABLE>
<VARIABLE TYPE="nature">
	<NAME>baby_bath</NAME>
	<OUTCOME>0</OUTCOME>
	<OUTCOME>1</OUTCOME>
	<PROPERTY>position = (17080,2208)</PROPERTY>
</VARIABLE>
<VARIABLE TYPE="nature">
	<NAME>window_guards</NAME>
	<OUTCOME>0</OUTCOME>
	<OUTCOME>1</OUTCOME>
	<PROPERTY>position = (18056,1824)</PROPERTY>
</VARIABLE>
<VARIABLE TYPE="nature">
	<NAME>cleaning_before_checkout</NAME>
	<OUTCOME>0</OUTCOME>
	<OUTCOME>1</OUTCOME>
	<PROPERTY>position = (14640,1536)</PROPERTY>
</VARIABLE>
<VARIABLE TYPE="nature">
	<NAME>security_cameras_on_property</NAME>
	<OUTCOME>0</OUTCOME>
	<OUTCOME>1</OUTCOME>
	<PROPERTY>position = (14884,1824)</PROPERTY>
</VARIABLE>
<VARIABLE TYPE="nature">
	<NAME>drying_rack_for_clothing</NAME>
	<OUTCOME>0</OUTCOME>
	<OUTCOME>1</OUTCOME>
	<PROPERTY>position = (10004,1824)</PROPERTY>
</VARIABLE>
<VARIABLE TYPE="nature">
	<NAME>waterfront</NAME>
	<OUTCOME>0</OUTCOME>
	<OUTCOME>1</OUTCOME>
	<PROPERTY>position = (15860,1920)</PROPERTY>
</VARIABLE>
<VARIABLE TYPE="nature">
	<NAME>indoor_fireplace</NAME>
	<OUTCOME>0</OUTCOME>
	<OUTCOME>1</OUTCOME>
	<PROPERTY>position = (9516,1632)</PROPERTY>
</VARIABLE>
<VARIABLE TYPE="nature">
	<NAME>game_console</NAME>
	<OUTCOME>0</OUTCOME>
	<OUTCOME>1</OUTCOME>
	<PROPERTY>position = (14396,1728)</PROPERTY>
</VARIABLE>
<VARIABLE TYPE="nature">
	<NAME>free_parking_on_premises</NAME>
	<OUTCOME>0</OUTCOME>
	<OUTCOME>1</OUTCOME>
	<PROPERTY>position = (4636,1536)</PROPERTY>
</VARIABLE>
<VARIABLE TYPE="nature">
	<NAME>smart_lock</NAME>
	<OUTCOME>0</OUTCOME>
	<OUTCOME>1</OUTCOME>
	<PROPERTY>position = (24888,2208)</PROPERTY>
</VARIABLE>
<VARIABLE TYPE="nature">
	<NAME>rice_maker</NAME>
	<OUTCOME>0</OUTCOME>
	<OUTCOME>1</OUTCOME>
	<PROPERTY>position = (10248,1824)</PROPERTY>
</VARIABLE>
<VARIABLE TYPE="nature">
	<NAME>clothing_storage</NAME>
	<OUTCOME>0</OUTCOME>
	<OUTCOME>1</OUTCOME>
	<PROPERTY>position = (9516,1728)</PROPERTY>
</VARIABLE>
<VARIABLE TYPE="nature">
	<NAME>keurig_coffee_machine</NAME>
	<OUTCOME>0</OUTCOME>
	<OUTCOME>1</OUTCOME>
	<PROPERTY>position = (9028,1440)</PROPERTY>
</VARIABLE>
<VARIABLE TYPE="nature">
	<NAME>paid_parking_on_premises</NAME>
	<OUTCOME>0</OUTCOME>
	<OUTCOME>1</OUTCOME>
	<PROPERTY>position = (5368,1344)</PROPERTY>
</VARIABLE>
<VARIABLE TYPE="nature">
	<NAME>bbq_grill</NAME>
	<OUTCOME>0</OUTCOME>
	<OUTCOME>1</OUTCOME>
	<PROPERTY>position = (13908,1920)</PROPERTY>
</VARIABLE>
<VARIABLE TYPE="nature">
	<NAME>barbecue_utensils</NAME>
	<OUTCOME>0</OUTCOME>
	<OUTCOME>1</OUTCOME>
	<PROPERTY>position = (14152,1824)</PROPERTY>
</VARIABLE>
<VARIABLE TYPE="nature">
	<NAME>nespresso_machine</NAME>
	<OUTCOME>0</OUTCOME>
	<OUTCOME>1</OUTCOME>
	<PROPERTY>position = (7076,1536)</PROPERTY>
</VARIABLE>
<VARIABLE TYPE="nature">
	<NAME>board_games</NAME>
	<OUTCOME>0</OUTCOME>
	<OUTCOME>1</OUTCOME>
	<PROPERTY>position = (11468,1824)</PROPERTY>
</VARIABLE>
<VARIABLE TYPE="nature">
	<NAME>pocket_wifi</NAME>
	<OUTCOME>0</OUTCOME>
	<OUTCOME>1</OUTCOME>
	<PROPERTY>position = (8052,1344)</PROPERTY>
</VARIABLE>
<VARIABLE TYPE="nature">
	<NAME>stainless_steel_oven</NAME>
	<OUTCOME>0</OUTCOME>
	<OUTCOME>1</OUTCOME>
	<PROPERTY>position = (8784,1440)</PROPERTY>
</VARIABLE>
<VARIABLE TYPE="nature">
	<NAME>trash_compactor</NAME>
	<OUTCOME>0</OUTCOME>
	<OUTCOME>1</OUTCOME>
	<PROPERTY>position = (7076,1440)</PROPERTY>
</VARIABLE>
<VARIABLE TYPE="nature">
	<NAME>n_cluster</NAME>
	<OUTCOME>0</OUTCOME>
	<OUTCOME>1</OUTCOME>
	<OUTCOME>2</OUTCOME>
	<OUTCOME>3</OUTCOME>
	<OUTCOME>4</OUTCOME>
	<PROPERTY>position = (8784,192)</PROPERTY>
</VARIABLE>
<DEFINITION>
<FOR>number_of_reviews_range</FOR>
	<GIVEN>avg_rating</GIVEN>
	<GIVEN>refrigerator</GIVEN>
	<GIVEN>host_is_superhost</GIVEN>
<TABLE>
8.306337735692334E-5 0.11005897499792341 0.8898579616247196 
0.002398081534772182 0.03117505995203837 0.9664268585131894 
2.5056376847907793E-4 0.056376847907792536 0.9433725883237284 
0.0035087719298245615 0.03859649122807018 0.9578947368421052 
0.13659657183247922 0.8633445249455145 5.890322200624374E-5 
0.40203714799281004 0.597363690832834 5.991611743559018E-4 
0.39084752199506295 0.6090891828596746 6.329514526235837E-5 
0.6960918966163067 0.303783243850668 1.248595330253465E-4 
</TABLE>
</DEFINITION>
<DEFINITION>
<FOR>minimum_nights_range</FOR>
	<GIVEN>avg_rating</GIVEN>
	<GIVEN>long_term_stays_allowed</GIVEN>
	<GIVEN>hot_water</GIVEN>
<TABLE>
0.18904109589041096 0.8082191780821918 0.0027397260273972603 
0.2183288409703504 0.7789757412398922 0.0026954177897574125 
0.8696906396100667 0.06276733313438775 0.0675420272555456 
0.7960625946491671 0.14016489988221437 0.06377250546861854 
0.1492776886035313 0.8491171749598716 0.0016051364365971107 
0.11452853095912587 0.8850667745851882 4.046944556859571E-4 
0.8607101947308133 0.11156930126002292 0.0277205040091638 
0.6278697886921759 0.34346087949743004 0.02866933181039406 
</TABLE>
</DEFINITION>
<DEFINITION>
<FOR>price_range</FOR>
	<GIVEN>property_type</GIVEN>
	<GIVEN>bedrooms</GIVEN>
	<GIVEN>gym</GIVEN>
<TABLE>
0.6655410365585083 0.2912445553761073 0.011207360642098567 0.026085254245583125 0.005921793177702736 
0.7586912065439673 0.1710974778459441 0.04567143830947512 0.017041581458759374 0.007498295841854124 
0.7320388349514563 0.1262135922330097 0.1145631067961165 0.017475728155339806 0.009708737864077669 
0.6164383561643836 0.0410958904109589 0.2054794520547945 0.0136986301369863 0.1232876712328767 
0.574468085106383 0.23404255319148937 0.1773049645390071 0.0070921985815602835 0.0070921985815602835 
0.38461538461538464 0.23076923076923078 0.07692307692307693 0.07692307692307693 0.23076923076923078 
0.3953488372093023 0.3488372093023256 0.11627906976744186 0.023255813953488372 0.11627906976744186 
0.3333333333333333 0.3333333333333333 0.1111111111111111 0.1111111111111111 0.1111111111111111 
0.3333333333333333 0.3333333333333333 0.2 0.06666666666666667 0.06666666666666667 
0.2 0.2 0.2 0.2 0.2 
0.2 0.2 0.2 0.2 0.2 
0.2 0.2 0.2 0.2 0.2 
0.2 0.2 0.2 0.2 0.2 
0.2 0.2 0.2 0.2 0.2 
0.2 0.2 0.2 0.2 0.2 
0.2 0.2 0.2 0.2 0.2 
0.2 0.2 0.2 0.2 0.2 
0.2 0.2 0.2 0.2 0.2 
0.2 0.2 0.2 0.2 0.2 
0.2 0.2 0.2 0.2 0.2 
0.2 0.2 0.2 0.2 0.2 
0.2 0.2 0.2 0.2 0.2 
0.2 0.2 0.2 0.2 0.2 
0.2 0.2 0.2 0.2 0.2 
0.8404185742315239 0.01024634837584478 0.14177748710122812 7.993605115907274E-4 0.006758229779812513 
0.5156332803391627 5.299417064122947E-4 0.4647588765235824 5.299417064122947E-4 0.018547959724430314 
0.6758371325263324 0.0023581197924854584 0.30859927684326366 1.5720798616569723E-4 0.01304826285175287 
0.3081924577373212 0.0039011703511053317 0.6332899869960988 0.0013003901170351106 0.053315994798439535 
0.4878186968838527 0.0028328611898017 0.4730878186968839 0.0016997167138810198 0.03456090651558073 
0.20300751879699247 0.007518796992481203 0.6090225563909775 0.007518796992481203 0.17293233082706766 
0.3045822102425876 0.0026954177897574125 0.5741239892183289 0.0026954177897574125 0.11590296495956873 
0.2 0.06666666666666667 0.2 0.06666666666666667 0.4666666666666667 
0.16455696202531644 0.012658227848101266 0.4936708860759494 0.012658227848101266 0.31645569620253167 
0.09090909090909091 0.09090909090909091 0.45454545454545453 0.09090909090909091 0.2727272727272727 
0.05263157894736842 0.05263157894736842 0.6842105263157895 0.05263157894736842 0.15789473684210525 
0.2 0.2 0.2 0.2 0.2 
0.15789473684210525 0.05263157894736842 0.47368421052631576 0.05263157894736842 0.2631578947368421 
0.2 0.2 0.2 0.2 0.2 
0.09090909090909091 0.09090909090909091 0.45454545454545453 0.09090909090909091 0.2727272727272727 
0.1111111111111111 0.1111111111111111 0.5555555555555556 0.1111111111111111 0.1111111111111111 
0.1111111111111111 0.1111111111111111 0.1111111111111111 0.1111111111111111 0.5555555555555556 
0.2 0.2 0.2 0.2 0.2 
0.42857142857142855 0.14285714285714285 0.14285714285714285 0.14285714285714285 0.14285714285714285 
0.2 0.2 0.2 0.2 0.2 
0.2 0.2 0.2 0.2 0.2 
0.2 0.2 0.2 0.2 0.2 
0.2 0.2 0.2 0.2 0.2 
0.2 0.2 0.2 0.2 0.2 
0.3310034947578632 0.5716425361957065 0.010484273589615577 0.08637044433349975 4.992511233150275E-4 
0.45454545454545453 0.3939393939393939 0.09090909090909091 0.030303030303030304 0.030303030303030304 
0.6949152542372882 0.05084745762711865 0.22033898305084745 0.01694915254237288 0.01694915254237288 
0.14285714285714285 0.42857142857142855 0.14285714285714285 0.14285714285714285 0.14285714285714285 
0.2413793103448276 0.1724137931034483 0.5172413793103449 0.034482758620689655 0.034482758620689655 
0.2 0.2 0.2 0.2 0.2 
0.38461538461538464 0.07692307692307693 0.38461538461538464 0.07692307692307693 0.07692307692307693 
0.2 0.2 0.2 0.2 0.2 
0.2 0.2 0.2 0.2 0.2 
0.2 0.2 0.2 0.2 0.2 
0.42857142857142855 0.14285714285714285 0.14285714285714285 0.14285714285714285 0.14285714285714285 
0.2 0.2 0.2 0.2 0.2 
0.2 0.2 0.2 0.2 0.2 
0.2 0.2 0.2 0.2 0.2 
0.2 0.2 0.2 0.2 0.2 
0.2 0.2 0.2 0.2 0.2 
0.2 0.2 0.2 0.2 0.2 
0.2 0.2 0.2 0.2 0.2 
0.2 0.2 0.2 0.2 0.2 
0.2 0.2 0.2 0.2 0.2 
0.2 0.2 0.2 0.2 0.2 
0.2 0.2 0.2 0.2 0.2 
0.2 0.2 0.2 0.2 0.2 
0.2 0.2 0.2 0.2 0.2 
0.6920077972709552 0.001949317738791423 0.27485380116959063 0.001949317738791423 0.029239766081871343 
0.7358490566037735 0.018867924528301886 0.20754716981132076 0.018867924528301886 0.018867924528301886 
0.3602693602693603 0.003367003367003367 0.5420875420875421 0.003367003367003367 0.09090909090909091 
0.29411764705882354 0.058823529411764705 0.5294117647058824 0.058823529411764705 0.058823529411764705 
0.12 0.013333333333333334 0.68 0.013333333333333334 0.17333333333333334 
0.1111111111111111 0.1111111111111111 0.3333333333333333 0.1111111111111111 0.3333333333333333 
0.10344827586206896 0.034482758620689655 0.5172413793103449 0.034482758620689655 0.3103448275862069 
0.2 0.2 0.2 0.2 0.2 
0.09090909090909091 0.09090909090909091 0.45454545454545453 0.09090909090909091 0.2727272727272727 
0.2 0.2 0.2 0.2 0.2 
0.14285714285714285 0.14285714285714285 0.14285714285714285 0.14285714285714285 0.42857142857142855 
0.2 0.2 0.2 0.2 0.2 
0.2 0.2 0.2 0.2 0.2 
0.2 0.2 0.2 0.2 0.2 
0.2 0.2 0.2 0.2 0.2 
0.2 0.2 0.2 0.2 0.2 
0.2 0.2 0.2 0.2 0.2 
0.2 0.2 0.2 0.2 0.2 
0.2 0.2 0.2 0.2 0.2 
0.2 0.2 0.2 0.2 0.2 
0.2 0.2 0.2 0.2 0.2 
0.2 0.2 0.2 0.2 0.2 
0.2 0.2 0.2 0.2 0.2 
0.2 0.2 0.2 0.2 0.2 
0.5699120412496209 0.3848953594176524 0.00818926296633303 0.034880194115862906 0.0021231422505307855 
0.6615384615384615 0.2 0.1076923076923077 0.015384615384615385 0.015384615384615385 
0.7984496124031008 0.08527131782945736 0.08527131782945736 0.023255813953488372 0.007751937984496124 
0.42857142857142855 0.14285714285714285 0.14285714285714285 0.14285714285714285 0.14285714285714285 
0.5609756097560976 0.07317073170731707 0.3170731707317073 0.024390243902439025 0.024390243902439025 
0.2 0.2 0.2 0.2 0.2 
0.8095238095238095 0.047619047619047616 0.047619047619047616 0.047619047619047616 0.047619047619047616 
0.2 0.2 0.2 0.2 0.2 
0.42857142857142855 0.14285714285714285 0.14285714285714285 0.14285714285714285 0.14285714285714285 
0.2 0.2 0.2 0.2 0.2 
0.2 0.2 0.2 0.2 0.2 
0.2 0.2 0.2 0.2 0.2 
0.42857142857142855 0.14285714285714285 0.14285714285714285 0.14285714285714285 0.14285714285714285 
0.2 0.2 0.2 0.2 0.2 
0.14285714285714285 0.14285714285714285 0.14285714285714285 0.14285714285714285 0.42857142857142855 
0.2 0.2 0.2 0.2 0.2 
0.2 0.2 0.2 0.2 0.2 
0.2 0.2 0.2 0.2 0.2 
0.2 0.2 0.2 0.2 0.2 
0.2 0.2 0.2 0.2 0.2 
0.2 0.2 0.2 0.2 0.2 
0.2 0.2 0.2 0.2 0.2 
0.2 0.2 0.2 0.2 0.2 
0.2 0.2 0.2 0.2 0.2 
0.762962962962963 0.01037037037037037 0.2 0.0044444444444444444 0.022222222222222223 
0.5250836120401338 0.0033444816053511705 0.411371237458194 0.0033444816053511705 0.056856187290969896 
0.5388235294117647 0.002352941176470588 0.4023529411764706 0.002352941176470588 0.05411764705882353 
0.24183006535947713 0.006535947712418301 0.6078431372549019 0.006535947712418301 0.13725490196078433 
0.25170068027210885 0.006802721088435374 0.564625850340136 0.006802721088435374 0.17006802721088435 
0.2 0.02857142857142857 0.6571428571428571 0.02857142857142857 0.08571428571428572 
0.2682926829268293 0.024390243902439025 0.5121951219512195 0.024390243902439025 0.17073170731707318 
0.1111111111111111 0.1111111111111111 0.1111111111111111 0.1111111111111111 0.5555555555555556 
0.42857142857142855 0.14285714285714285 0.14285714285714285 0.14285714285714285 0.14285714285714285 
0.2 0.2 0.2 0.2 0.2 
0.2 0.2 0.2 0.2 0.2 
0.2 0.2 0.2 0.2 0.2 
0.2 0.2 0.2 0.2 0.2 
0.2 0.2 0.2 0.2 0.2 
0.2 0.2 0.2 0.2 0.2 
0.2 0.2 0.2 0.2 0.2 
0.2 0.2 0.2 0.2 0.2 
0.2 0.2 0.2 0.2 0.2 
0.2 0.2 0.2 0.2 0.2 
0.2 0.2 0.2 0.2 0.2 
0.2 0.2 0.2 0.2 0.2 
0.2 0.2 0.2 0.2 0.2 
0.2 0.2 0.2 0.2 0.2 
0.2 0.2 0.2 0.2 0.2 
0.9154334038054969 0.040169133192389 0.040169133192389 0.0021141649048625794 0.0021141649048625794 
0.45454545454545453 0.09090909090909091 0.2727272727272727 0.09090909090909091 0.09090909090909091 
0.6509240246406571 0.014373716632443531 0.3182751540041068 0.002053388090349076 0.014373716632443531 
0.47368421052631576 0.05263157894736842 0.2631578947368421 0.05263157894736842 0.15789473684210525 
0.41899441340782123 0.00558659217877095 0.5083798882681564 0.00186219739292365 0.06517690875232775 
0.28 0.04 0.52 0.04 0.12 
0.1493212669683258 0.004524886877828055 0.755656108597285 0.004524886877828055 0.08597285067873303 
0.06666666666666667 0.06666666666666667 0.6 0.06666666666666667 0.2 
0.09090909090909091 0.012987012987012988 0.5844155844155844 0.012987012987012988 0.2987012987012987 
0.14285714285714285 0.14285714285714285 0.14285714285714285 0.14285714285714285 0.42857142857142855 
0.09090909090909091 0.030303030303030304 0.5757575757575758 0.030303030303030304 0.2727272727272727 
0.2 0.2 0.2 0.2 0.2 
0.14285714285714285 0.14285714285714285 0.14285714285714285 0.14285714285714285 0.42857142857142855 
0.14285714285714285 0.14285714285714285 0.14285714285714285 0.14285714285714285 0.42857142857142855 
0.09090909090909091 0.09090909090909091 0.2727272727272727 0.09090909090909091 0.45454545454545453 
0.2 0.2 0.2 0.2 0.2 
0.14285714285714285 0.14285714285714285 0.42857142857142855 0.14285714285714285 0.14285714285714285 
0.2 0.2 0.2 0.2 0.2 
0.1111111111111111 0.1111111111111111 0.3333333333333333 0.1111111111111111 0.3333333333333333 
0.2 0.2 0.2 0.2 0.2 
0.2 0.2 0.2 0.2 0.2 
0.2 0.2 0.2 0.2 0.2 
0.14285714285714285 0.14285714285714285 0.14285714285714285 0.14285714285714285 0.42857142857142855 
0.2 0.2 0.2 0.2 0.2 
0.8666666666666667 0.013333333333333334 0.08444444444444445 0.013333333333333334 0.022222222222222223 
0.6363636363636364 0.09090909090909091 0.09090909090909091 0.09090909090909091 0.09090909090909091 
0.6738461538461539 0.015384615384615385 0.2923076923076923 0.003076923076923077 0.015384615384615385 
0.6 0.06666666666666667 0.2 0.06666666666666667 0.06666666666666667 
0.3684210526315789 0.0035087719298245615 0.543859649122807 0.0035087719298245615 0.08070175438596491 
0.3684210526315789 0.05263157894736842 0.3684210526315789 0.05263157894736842 0.15789473684210525 
0.20855614973262032 0.0053475935828877 0.47593582887700536 0.0053475935828877 0.3048128342245989 
0.23076923076923078 0.07692307692307693 0.23076923076923078 0.07692307692307693 0.38461538461538464 
0.061224489795918366 0.02040816326530612 0.7959183673469388 0.02040816326530612 0.10204081632653061 
0.09090909090909091 0.09090909090909091 0.45454545454545453 0.09090909090909091 0.2727272727272727 
0.06666666666666667 0.06666666666666667 0.2 0.06666666666666667 0.6 
0.2 0.2 0.2 0.2 0.2 
0.14285714285714285 0.14285714285714285 0.14285714285714285 0.14285714285714285 0.42857142857142855 
0.2 0.2 0.2 0.2 0.2 
0.05263157894736842 0.05263157894736842 0.05263157894736842 0.05263157894736842 0.7894736842105263 
0.2 0.2 0.2 0.2 0.2 
0.14285714285714285 0.14285714285714285 0.42857142857142855 0.14285714285714285 0.14285714285714285 
0.2 0.2 0.2 0.2 0.2 
0.2 0.2 0.2 0.2 0.2 
0.2 0.2 0.2 0.2 0.2 
0.14285714285714285 0.14285714285714285 0.42857142857142855 0.14285714285714285 0.14285714285714285 
0.2 0.2 0.2 0.2 0.2 
0.2 0.2 0.2 0.2 0.2 
0.2 0.2 0.2 0.2 0.2 
</TABLE>
</DEFINITION>
<DEFINITION>
<FOR>host_is_superhost</FOR>
	<GIVEN>avg_rating</GIVEN>
<TABLE>
0.9583183829685444 0.041681617031455565 
0.772099707850344 0.22790029214965601 
</TABLE>
</DEFINITION>
<DEFINITION>
<FOR>host_has_profile_pic</FOR>
	<GIVEN>host_identity_verified</GIVEN>
	<GIVEN>shower_gel</GIVEN>
	<GIVEN>lockbox</GIVEN>
<TABLE>
0.9974985206304804 0.0025014793695196085 
0.999512987012987 4.87012987012987E-4 
0.9996888612321095 3.1113876789047915E-4 
0.999231950844854 7.680491551459293E-4 
0.991983753740915 0.00801624625908508 
0.999009900990099 9.900990099009901E-4 
0.9985955056179775 0.0014044943820224719 
0.9959349593495935 0.0040650406504065045 
</TABLE>
</DEFINITION>
<DEFINITION>
<FOR>host_identity_verified</FOR>
	<GIVEN>avg_rating</GIVEN>
<TABLE>
0.7905154885779213 0.2094845114220787 
0.8158750353406842 0.1841249646593158 
</TABLE>
</DEFINITION>
<DEFINITION>
<FOR>neighbourhood_cleansed</FOR>
	<GIVEN>elevator</GIVEN>
<TABLE>
0.09652650040638235 0.009475125122984129 0.01495059246267699 0.0296231338495102 0.007379047782007956 0.018843307524489882 0.033772511442871196 0.05037002181631518 0.010715660692133294 0.010074004363263037 0.006480728921589597 0.011100654489455448 0.07680626256576978 0.025131539547418404 0.005496855883988536 0.014437267399580785 0.029922573469649657 0.007464601959190658 0.011571202463960303 0.01221285879283056 0.007336270693416606 0.05965265004063824 0.0068229456303204004 0.01400949651366728 0.011613979552551654 0.03124866321598152 0.010031227274671687 0.01790221157548017 0.013581725627753775 0.004213543226248021 0.009304016768618728 0.0016041408221756427 0.0022885742396372504 0.010843991957907344 0.0018180262651323951 0.00592462676990204 0.007764041579330111 7.058219617572828E-4 0.00318689310005561 0.0010480386704880865 0.0033580014544210123 0.008149035376652266 0.006994053984685803 0.0016896949993583437 8.769303161226847E-4 4.4915943020917994E-4 0.004684091200752877 0.03950464131411216 0.022693245497711425 0.0014758095564015913 0.0013474782906275399 0.0018608033537237455 0.003828549428925867 7.058219617572828E-4 0.0021174658852718482 0.0010480386704880865 0.007764041579330111 0.0013474782906275399 0.0022457971510458996 0.0033152243658296616 0.001090815759079437 0.0023313513282286007 2.352739872524276E-4 0.0029730076570988577 0.004299097403430723 0.008149035376652266 0.004213543226248021 5.34713607391881E-4 0.002459682594002652 0.0022030200624545493 0.0033152243658296616 0.01490781537408564 0.003785772340334517 0.0022030200624545493 0.006951276896094451 4.063823416178295E-4 0.002887453479916157 0.0033580014544210123 5.774906959832314E-4 0.001005261581896736 7.913761389399838E-4 0.006523506010180947 3.63605253026479E-4 0.0016041408221756427 0.001176369936262138 0.002459682594002652 1.9249689866107712E-4 0.009560679300166831 0.0018608033537237455 9.624844933053857E-4 6.416563288702571E-5 9.624844933053857E-4 0.0012191470248534885 0.0018180262651323951 3.2082816443512854E-4 0.005710741326945288 6.202677845745818E-4 7.058219617572828E-4 2.352739872524276E-4 8.341532275313342E-4 8.769303161226847E-4 4.4915943020917994E-4 3.63605253026479E-4 4.063823416178295E-4 7.058219617572828E-4 0.0016896949993583437 0.0017752491765410446 0.005325747529623134 0.001261924113444839 3.63605253026479E-4 0.0026307909483680543 6.416563288702571E-5 6.630448731659324E-4 2.352739872524276E-4 2.352739872524276E-4 1.0694272147837618E-4 1.9249689866107712E-4 0.001903580442315096 0.002459682594002652 5.34713607391881E-4 0.0013902553792188904 0.001090815759079437 4.919365188005304E-4 1.4971981006972666E-4 1.4971981006972666E-4 0.0023313513282286007 0.0022885742396372504 6.202677845745818E-4 0.0021174658852718482 0.002160242973863199 4.919365188005304E-4 6.416563288702571E-5 2.352739872524276E-4 0.0019463575309064465 3.63605253026479E-4 4.4915943020917994E-4 0.001261924113444839 7.058219617572828E-4 4.4915943020917994E-4 1.9249689866107712E-4 4.063823416178295E-4 7.485990503486333E-4 0.001176369936262138 8.341532275313342E-4 8.769303161226847E-4 0.001005261581896736 5.774906959832314E-4 8.341532275313342E-4 0.0032724472772383112 3.63605253026479E-4 8.341532275313342E-4 1.0694272147837618E-4 3.63605253026479E-4 7.485990503486333E-4 1.0694272147837618E-4 6.630448731659324E-4 1.9249689866107712E-4 0.001090815759079437 8.769303161226847E-4 1.9249689866107712E-4 1.4971981006972666E-4 2.352739872524276E-4 2.352739872524276E-4 2.7805107584377806E-4 1.9249689866107712E-4 4.4915943020917994E-4 3.2082816443512854E-4 3.63605253026479E-4 2.352739872524276E-4 3.2082816443512854E-4 7.485990503486333E-4 1.4971981006972666E-4 3.2082816443512854E-4 4.919365188005304E-4 1.9249689866107712E-4 4.919365188005304E-4 0.002459682594002652 0.0016896949993583437 6.202677845745818E-4 1.0694272147837618E-4 1.4971981006972666E-4 6.630448731659324E-4 1.9249689866107712E-4 6.416563288702571E-5 4.063823416178295E-4 5.34713607391881E-4 1.9249689866107712E-4 5.774906959832314E-4 2.7805107584377806E-4 1.9249689866107712E-4 6.416563288702571E-5 1.9249689866107712E-4 4.063823416178295E-4 1.4971981006972666E-4 1.0694272147837618E-4 1.4971981006972666E-4 5.34713607391881E-4 2.352739872524276E-4 0.001090815759079437 4.919365188005304E-4 6.416563288702571E-5 1.4971981006972666E-4 1.9249689866107712E-4 4.919365188005304E-4 3.2082816443512854E-4 1.0694272147837618E-4 6.416563288702571E-5 6.416563288702571E-5 1.4971981006972666E-4 6.416563288702571E-5 6.416563288702571E-5 6.416563288702571E-5 1.0694272147837618E-4 6.416563288702571E-5 6.416563288702571E-5 6.416563288702571E-5 6.416563288702571E-5 6.416563288702571E-5 
0.019853628153223293 0.0022578635938959825 0.05831516661476176 0.07388663967611336 0.0014792899408284023 0.027795079414512612 0.03199937714107755 0.08649953285580816 0.021410775459358454 0.009887885393958268 7.007162877608222E-4 0.006150731859233883 0.06999377141077547 0.01300218000622859 0.0045935845530987235 0.03106508875739645 0.044767985051385864 0.004749299283712239 0.011133603238866396 0.03978511367175335 0.019075054500155716 0.012846465275615074 8.564310183743382E-4 0.01533790096543133 0.0021021488632824666 0.05411086888819682 0.017050763002180006 0.021099345998131423 0.003815010900031143 0.0025692930551230145 0.00708502024291498 2.3357209592027406E-4 0.00864216754905014 7.007162877608222E-4 7.007162877608222E-4 0.0027250077857365307 0.0017907194020554344 2.3357209592027406E-4 0.0021021488632824666 0.004282155091871691 0.0016350046714419184 0.003347866708190595 0.0073964497041420114 7.785736530675803E-5 7.785736530675803E-5 7.785736530675803E-5 0.00786359389598256 0.020165057614450328 0.008330738087823109 0.0019464341326689504 2.3357209592027406E-4 0.003659296169417627 0.01689504827156649 2.3357209592027406E-4 0.0013235752102148863 2.3357209592027406E-4 8.564310183743382E-4 0.003503581438804111 0.013469324198069137 0.004282155091871691 0.0017907194020554344 0.0010121457489878543 7.785736530675803E-5 7.785736530675803E-5 0.007240734973528496 0.004282155091871691 3.892868265337901E-4 7.785736530675803E-5 0.022967922765493615 0.0024135783245094987 0.003347866708190595 0.004126440361258175 0.020009342883836812 0.0017907194020554344 0.006462161320460916 7.785736530675803E-5 0.003347866708190595 7.785736530675803E-5 7.785736530675803E-5 7.007162877608222E-4 0.003815010900031143 0.006462161320460916 0.00708502024291498 0.0013235752102148863 7.785736530675803E-5 3.892868265337901E-4 7.785736530675803E-5 0.009887885393958268 7.007162877608222E-4 0.0014792899408284023 7.785736530675803E-5 0.0027250077857365307 7.785736530675803E-5 7.785736530675803E-5 7.785736530675803E-5 5.450015571473061E-4 2.3357209592027406E-4 0.003503581438804111 5.450015571473061E-4 0.0021021488632824666 7.785736530675803E-5 0.0017907194020554344 0.0011678604796013703 7.785736530675803E-5 3.892868265337901E-4 7.007162877608222E-4 7.785736530675803E-5 2.3357209592027406E-4 7.785736530675803E-5 8.564310183743382E-4 7.785736530675803E-5 3.892868265337901E-4 0.0014792899408284023 0.0016350046714419184 7.785736530675803E-5 3.892868265337901E-4 7.785736530675803E-5 7.785736530675803E-5 8.564310183743382E-4 0.0017907194020554344 0.0025692930551230145 7.007162877608222E-4 0.0010121457489878543 3.892868265337901E-4 7.785736530675803E-5 7.007162877608222E-4 5.450015571473061E-4 0.0013235752102148863 2.3357209592027406E-4 7.007162877608222E-4 0.005527872936779819 7.785736530675803E-5 7.785736530675803E-5 0.004126440361258175 7.785736530675803E-5 7.785736530675803E-5 7.785736530675803E-5 2.3357209592027406E-4 7.785736530675803E-5 2.3357209592027406E-4 7.785736530675803E-5 8.564310183743382E-4 7.785736530675803E-5 7.785736530675803E-5 2.3357209592027406E-4 7.785736530675803E-5 7.785736530675803E-5 0.0013235752102148863 7.785736530675803E-5 3.892868265337901E-4 7.785736530675803E-5 3.892868265337901E-4 7.785736530675803E-5 0.0024135783245094987 7.785736530675803E-5 2.3357209592027406E-4 7.785736530675803E-5 2.3357209592027406E-4 2.3357209592027406E-4 7.785736530675803E-5 7.785736530675803E-5 5.450015571473061E-4 2.3357209592027406E-4 7.785736530675803E-5 2.3357209592027406E-4 7.785736530675803E-5 7.785736530675803E-5 7.785736530675803E-5 7.785736530675803E-5 2.3357209592027406E-4 7.785736530675803E-5 7.785736530675803E-5 7.785736530675803E-5 2.3357209592027406E-4 7.785736530675803E-5 2.3357209592027406E-4 2.3357209592027406E-4 7.785736530675803E-5 0.0010121457489878543 7.785736530675803E-5 7.785736530675803E-5 2.3357209592027406E-4 7.785736530675803E-5 7.785736530675803E-5 7.785736530675803E-5 7.785736530675803E-5 7.785736530675803E-5 2.3357209592027406E-4 2.3357209592027406E-4 7.785736530675803E-5 7.785736530675803E-5 7.785736530675803E-5 7.785736530675803E-5 7.785736530675803E-5 7.785736530675803E-5 2.3357209592027406E-4 7.785736530675803E-5 7.785736530675803E-5 7.785736530675803E-5 7.785736530675803E-5 7.785736530675803E-5 7.785736530675803E-5 7.785736530675803E-5 7.785736530675803E-5 7.785736530675803E-5 7.785736530675803E-5 7.785736530675803E-5 7.785736530675803E-5 7.785736530675803E-5 3.892868265337901E-4 7.785736530675803E-5 7.785736530675803E-5 7.785736530675803E-5 7.785736530675803E-5 7.785736530675803E-5 7.785736530675803E-5 7.785736530675803E-5 7.785736530675803E-5 
</TABLE>
</DEFINITION>
<DEFINITION>
<FOR>property_type</FOR>
	<GIVEN>avg_rating</GIVEN>
	<GIVEN>elevator</GIVEN>
	<GIVEN>coffee_maker</GIVEN>
<TABLE>
0.49374194735873367 0.31557150745444507 0.06966685072703847 0.007638505429780968 0.05457390023927848 0.01665746364807657 0.024387999263758512 0.017761825878888277 
0.29442843419788667 0.5019212295869356 0.0196926032660903 0.010086455331412104 0.05523535062439962 0.036983669548511046 0.05043227665706052 0.03121998078770413 
0.4143880208333333 0.5003255208333334 3.255208333333333E-4 0.013997395833333334 0.0022786458333333335 0.06673177083333333 0.0016276041666666667 3.255208333333333E-4 
0.1762295081967213 0.75 0.001366120218579235 0.006830601092896175 0.004098360655737705 0.056010928961748634 0.001366120218579235 0.004098360655737705 
0.43653611450127594 0.370853212027072 0.04166204371463442 0.012038167091978254 0.08604238322423166 0.01547764340397204 0.02646177743259736 0.010928658604238322 
0.25439271514685136 0.4811465948441708 0.03636013851481339 0.020713094780043607 0.08086443503911761 0.01955880466846223 0.06457611902013595 0.04238809798640503 
0.4080396475770925 0.506791483113069 1.8355359765051394E-4 0.026982378854625552 0.0020190895741556535 0.053046989720998534 0.0023861967694566812 5.506607929515419E-4 
0.36200822078684675 0.4829712272460364 0.001467997651203758 0.03963593658250147 8.807985907222549E-4 0.11068702290076336 8.807985907222549E-4 0.001467997651203758 
</TABLE>
</DEFINITION>
<DEFINITION>
<FOR>room_type</FOR>
	<GIVEN>property_type</GIVEN>
<TABLE>
0.9999558810553252 4.4118944674843376E-5 
3.976459360585335E-5 0.9999602354063941 
0.9995278564683664 4.7214353163361664E-4 
0.0010330578512396695 0.9989669421487604 
0.9997173544375353 2.826455624646693E-4 
5.720823798627002E-4 0.9994279176201373 
5.347593582887701E-4 0.9994652406417113 
8.9126559714795E-4 0.9991087344028521 
</TABLE>
</DEFINITION>
<DEFINITION>
<FOR>accommodates</FOR>
	<GIVEN>property_type</GIVEN>
<TABLE>
0.3500440917107584 0.5810846560846561 0.033994708994708994 0.025264550264550264 0.0033950617283950617 0.0028659611992945325 6.613756613756613E-4 0.0010141093474426808 2.204585537918871E-4 5.731922398589065E-4 4.409171075837743E-5 3.0864197530864197E-4 4.409171075837743E-5 4.409171075837743E-5 4.409171075837743E-5 3.968253968253968E-4 
0.018480247993005326 0.3219537397663143 0.1652889277481917 0.27720371989507986 0.07952468007312614 0.0866783244575153 0.014664970987997775 0.0203878864955091 0.0025037755345362054 0.006239567601939433 9.140767824497258E-4 0.002821715284953501 3.576822192194579E-4 7.551069072410778E-4 3.576822192194579E-4 0.0018678960337016135 
0.3400562851782364 0.5755159474671669 0.03142589118198874 0.03424015009380863 0.004221388367729831 0.003283302063789869 0.0014071294559099437 4.6904315196998124E-4 4.6904315196998124E-4 0.0014071294559099437 0.0023452157598499064 0.0014071294559099437 0.0014071294559099437 4.6904315196998124E-4 0.0014071294559099437 4.6904315196998124E-4 
0.0050916496945010185 0.3004073319755601 0.12932790224032586 0.2861507128309572 0.12118126272912423 0.09674134419551934 0.015274949083503055 0.017311608961303463 0.0010183299389002036 0.009164969450101833 0.0010183299389002036 0.007128309572301426 0.0010183299389002036 0.0010183299389002036 0.0010183299389002036 0.007128309572301426 
0.30771396396396394 0.5616554054054054 0.0633445945945946 0.04420045045045045 0.011542792792792793 0.004222972972972973 0.0014076576576576576 0.0019707207207207205 2.8153153153153153E-4 2.8153153153153153E-4 2.8153153153153153E-4 0.0014076576576576576 2.8153153153153153E-4 2.8153153153153153E-4 2.8153153153153153E-4 8.445945945945946E-4 
0.010783200908059024 0.29682179341657206 0.1333711691259932 0.3036322360953462 0.06640181611804767 0.123155505107832 0.016458569807037457 0.02553916004540295 0.00510783200908059 0.00851305334846765 0.003972758229284903 0.0028376844494892167 0.00170261066969353 5.675368898978433E-4 5.675368898978433E-4 5.675368898978433E-4 
0.011146496815286623 0.11942675159235669 0.06422505307855626 0.20435244161358812 0.11199575371549894 0.1767515923566879 0.05997876857749469 0.10774946921443737 0.014331210191082803 0.05148619957537155 0.01326963906581741 0.02176220806794055 0.012208067940552018 0.00583864118895966 0.0037154989384288748 0.02176220806794055 
8.802816901408451E-4 0.07834507042253522 0.0625 0.2632042253521127 0.12764084507042253 0.1698943661971831 0.05193661971830986 0.11003521126760564 0.007922535211267605 0.043133802816901406 0.007922535211267605 0.029049295774647887 0.009683098591549295 0.0044014084507042256 8.802816901408451E-4 0.032570422535211266 
</TABLE>
</DEFINITION>
<DEFINITION>
<FOR>bathrooms</FOR>
	<GIVEN>bedrooms</GIVEN>
	<GIVEN>room_type</GIVEN>
	<GIVEN>dryer</GIVEN>
<TABLE>
0.010218736190897039 0.0013809102960671675 0.855777728678745 0.05363455589924879 0.06689129474149359 0.006794078656650464 0.0038113124171453823 1.657092355280601E-4 7.180733539549271E-4 1.657092355280601E-4 5.52364118426867E-5 5.52364118426867E-5 5.52364118426867E-5 5.52364118426867E-5 5.52364118426867E-5 5.52364118426867E-5 5.52364118426867E-5 5.52364118426867E-5 
0.007717391304347826 5.434782608695652E-4 0.7568478260869566 0.08097826086956522 0.12119565217391304 0.007065217391304348 0.01858695652173913 3.2608695652173916E-4 0.004891304347826087 1.0869565217391305E-4 7.608695652173913E-4 1.0869565217391305E-4 3.2608695652173916E-4 1.0869565217391305E-4 1.0869565217391305E-4 1.0869565217391305E-4 1.0869565217391305E-4 1.0869565217391305E-4 
0.0031847133757961785 0.001640609920864698 0.9690214244354372 0.01669561860644663 0.00781702374059062 2.8951939779965256E-4 9.650646593321752E-5 9.650646593321752E-5 2.8951939779965256E-4 9.650646593321752E-5 9.650646593321752E-5 9.650646593321752E-5 9.650646593321752E-5 9.650646593321752E-5 9.650646593321752E-5 9.650646593321752E-5 9.650646593321752E-5 9.650646593321752E-5 
0.0014604354753053638 3.983005841741901E-4 0.932421667551779 0.03597981943706851 0.027748274030801913 3.983005841741901E-4 1.327668613913967E-4 1.327668613913967E-4 1.327668613913967E-4 1.327668613913967E-4 1.327668613913967E-4 1.327668613913967E-4 1.327668613913967E-4 1.327668613913967E-4 1.327668613913967E-4 1.327668613913967E-4 1.327668613913967E-4 1.327668613913967E-4 
0.014056224899598393 0.002008032128514056 0.8012048192771084 0.06224899598393574 0.09036144578313253 0.002008032128514056 0.002008032128514056 0.002008032128514056 0.006024096385542169 0.002008032128514056 0.002008032128514056 0.002008032128514056 0.002008032128514056 0.002008032128514056 0.002008032128514056 0.002008032128514056 0.002008032128514056 0.002008032128514056 
0.010067114093959731 0.003355704697986577 0.6610738255033557 0.12416107382550336 0.15100671140939598 0.010067114093959731 0.003355704697986577 0.003355704697986577 0.003355704697986577 0.003355704697986577 0.003355704697986577 0.003355704697986577 0.003355704697986577 0.003355704697986577 0.003355704697986577 0.003355704697986577 0.003355704697986577 0.003355704697986577 
2.1805494984736154E-4 0.0010902747492368076 0.8789795028347144 0.037723506323593545 0.07304840819886611 0.005451373746184038 0.0010902747492368076 2.1805494984736154E-4 2.1805494984736154E-4 2.1805494984736154E-4 2.1805494984736154E-4 2.1805494984736154E-4 2.1805494984736154E-4 2.1805494984736154E-4 2.1805494984736154E-4 2.1805494984736154E-4 2.1805494984736154E-4 2.1805494984736154E-4 
7.029053420805998E-4 2.3430178069353328E-4 0.5888003748828491 0.06490159325210872 0.3057638238050609 0.027413308341143392 0.009137769447047797 7.029053420805998E-4 2.3430178069353328E-4 2.3430178069353328E-4 2.3430178069353328E-4 2.3430178069353328E-4 2.3430178069353328E-4 2.3430178069353328E-4 2.3430178069353328E-4 2.3430178069353328E-4 2.3430178069353328E-4 2.3430178069353328E-4 
0.006097560975609756 0.006097560975609756 0.5670731707317073 0.16463414634146342 0.1402439024390244 0.018292682926829267 0.03048780487804878 0.006097560975609756 0.006097560975609756 0.006097560975609756 0.006097560975609756 0.006097560975609756 0.006097560975609756 0.006097560975609756 0.006097560975609756 0.006097560975609756 0.006097560975609756 0.006097560975609756 
0.039473684210526314 0.013157894736842105 0.3026315789473684 0.17105263157894737 0.27631578947368424 0.013157894736842105 0.039473684210526314 0.013157894736842105 0.013157894736842105 0.013157894736842105 0.013157894736842105 0.013157894736842105 0.013157894736842105 0.013157894736842105 0.013157894736842105 0.013157894736842105 0.013157894736842105 0.013157894736842105 
0.002167630057803468 7.22543352601156E-4 0.5960982658959537 0.11054913294797687 0.22615606936416185 0.018063583815028903 0.03395953757225433 0.0036127167630057803 0.002167630057803468 7.22543352601156E-4 7.22543352601156E-4 7.22543352601156E-4 7.22543352601156E-4 7.22543352601156E-4 7.22543352601156E-4 7.22543352601156E-4 7.22543352601156E-4 7.22543352601156E-4 
6.127450980392157E-4 6.127450980392157E-4 0.23713235294117646 0.08517156862745098 0.4025735294117647 0.14522058823529413 0.08394607843137254 0.03125 0.00428921568627451 0.001838235294117647 0.001838235294117647 0.001838235294117647 6.127450980392157E-4 6.127450980392157E-4 6.127450980392157E-4 6.127450980392157E-4 6.127450980392157E-4 6.127450980392157E-4 
0.018518518518518517 0.018518518518518517 0.16666666666666666 0.09259259259259259 0.3888888888888889 0.018518518518518517 0.05555555555555555 0.018518518518518517 0.05555555555555555 0.018518518518518517 0.018518518518518517 0.018518518518518517 0.018518518518518517 0.018518518518518517 0.018518518518518517 0.018518518518518517 0.018518518518518517 0.018518518518518517 
0.020833333333333332 0.020833333333333332 0.4791666666666667 0.020833333333333332 0.0625 0.020833333333333332 0.0625 0.10416666666666667 0.020833333333333332 0.020833333333333332 0.020833333333333332 0.020833333333333332 0.020833333333333332 0.020833333333333332 0.020833333333333332 0.020833333333333332 0.020833333333333332 0.020833333333333332 
0.0029239766081871343 0.0029239766081871343 0.31871345029239767 0.049707602339181284 0.4649122807017544 0.049707602339181284 0.03216374269005848 0.02631578947368421 0.02046783625730994 0.008771929824561403 0.0029239766081871343 0.0029239766081871343 0.0029239766081871343 0.0029239766081871343 0.0029239766081871343 0.0029239766081871343 0.0029239766081871343 0.0029239766081871343 
0.0018181818181818182 0.0018181818181818182 0.045454545454545456 0.06727272727272728 0.38 0.14363636363636365 0.11818181818181818 0.10727272727272727 0.07454545454545454 0.02 0.016363636363636365 0.012727272727272728 0.0018181818181818182 0.0018181818181818182 0.0018181818181818182 0.0018181818181818182 0.0018181818181818182 0.0018181818181818182 
0.03333333333333333 0.03333333333333333 0.16666666666666666 0.03333333333333333 0.23333333333333334 0.03333333333333333 0.03333333333333333 0.03333333333333333 0.03333333333333333 0.03333333333333333 0.1 0.03333333333333333 0.03333333333333333 0.03333333333333333 0.03333333333333333 0.03333333333333333 0.03333333333333333 0.03333333333333333 
0.05555555555555555 0.05555555555555555 0.05555555555555555 0.05555555555555555 0.05555555555555555 0.05555555555555555 0.05555555555555555 0.05555555555555555 0.05555555555555555 0.05555555555555555 0.05555555555555555 0.05555555555555555 0.05555555555555555 0.05555555555555555 0.05555555555555555 0.05555555555555555 0.05555555555555555 0.05555555555555555 
0.016129032258064516 0.016129032258064516 0.08064516129032258 0.08064516129032258 0.3709677419354839 0.11290322580645161 0.08064516129032258 0.04838709677419355 0.04838709677419355 0.016129032258064516 0.016129032258064516 0.016129032258064516 0.016129032258064516 0.016129032258064516 0.016129032258064516 0.016129032258064516 0.016129032258064516 0.016129032258064516 
0.005376344086021506 0.005376344086021506 0.03763440860215054 0.026881720430107527 0.22043010752688172 0.15591397849462366 0.23118279569892472 0.0913978494623656 0.05913978494623656 0.08064516129032258 0.026881720430107527 0.026881720430107527 0.005376344086021506 0.005376344086021506 0.005376344086021506 0.005376344086021506 0.005376344086021506 0.005376344086021506 
0.05555555555555555 0.05555555555555555 0.05555555555555555 0.05555555555555555 0.05555555555555555 0.05555555555555555 0.05555555555555555 0.05555555555555555 0.05555555555555555 0.05555555555555555 0.05555555555555555 0.05555555555555555 0.05555555555555555 0.05555555555555555 0.05555555555555555 0.05555555555555555 0.05555555555555555 0.05555555555555555 
0.05 0.05 0.05 0.05 0.05 0.05 0.05 0.05 0.05 0.05 0.05 0.15 0.05 0.05 0.05 0.05 0.05 0.05 
0.03125 0.03125 0.03125 0.03125 0.28125 0.03125 0.15625 0.03125 0.09375 0.03125 0.03125 0.03125 0.03125 0.03125 0.03125 0.03125 0.03125 0.03125 
0.017241379310344827 0.017241379310344827 0.017241379310344827 0.017241379310344827 0.1206896551724138 0.08620689655172414 0.25862068965517243 0.08620689655172414 0.017241379310344827 0.15517241379310345 0.05172413793103448 0.017241379310344827 0.05172413793103448 0.017241379310344827 0.017241379310344827 0.017241379310344827 0.017241379310344827 0.017241379310344827 
0.05555555555555555 0.05555555555555555 0.05555555555555555 0.05555555555555555 0.05555555555555555 0.05555555555555555 0.05555555555555555 0.05555555555555555 0.05555555555555555 0.05555555555555555 0.05555555555555555 0.05555555555555555 0.05555555555555555 0.05555555555555555 0.05555555555555555 0.05555555555555555 0.05555555555555555 0.05555555555555555 
0.05 0.05 0.05 0.05 0.05 0.15 0.05 0.05 0.05 0.05 0.05 0.05 0.05 0.05 0.05 0.05 0.05 0.05 
0.038461538461538464 0.038461538461538464 0.038461538461538464 0.038461538461538464 0.11538461538461539 0.038461538461538464 0.11538461538461539 0.038461538461538464 0.19230769230769232 0.038461538461538464 0.038461538461538464 0.038461538461538464 0.038461538461538464 0.038461538461538464 0.038461538461538464 0.038461538461538464 0.038461538461538464 0.038461538461538464 
0.03333333333333333 0.03333333333333333 0.1 0.03333333333333333 0.1 0.1 0.03333333333333333 0.03333333333333333 0.16666666666666666 0.03333333333333333 0.03333333333333333 0.03333333333333333 0.03333333333333333 0.03333333333333333 0.1 0.03333333333333333 0.03333333333333333 0.03333333333333333 
0.05555555555555555 0.05555555555555555 0.05555555555555555 0.05555555555555555 0.05555555555555555 0.05555555555555555 0.05555555555555555 0.05555555555555555 0.05555555555555555 0.05555555555555555 0.05555555555555555 0.05555555555555555 0.05555555555555555 0.05555555555555555 0.05555555555555555 0.05555555555555555 0.05555555555555555 0.05555555555555555 
0.05 0.05 0.05 0.05 0.05 0.05 0.05 0.05 0.15 0.05 0.05 0.05 0.05 0.05 0.05 0.05 0.05 0.05 
0.045454545454545456 0.045454545454545456 0.045454545454545456 0.045454545454545456 0.13636363636363635 0.045454545454545456 0.045454545454545456 0.045454545454545456 0.13636363636363635 0.045454545454545456 0.045454545454545456 0.045454545454545456 0.045454545454545456 0.045454545454545456 0.045454545454545456 0.045454545454545456 0.045454545454545456 0.045454545454545456 
0.022727272727272728 0.022727272727272728 0.022727272727272728 0.022727272727272728 0.022727272727272728 0.022727272727272728 0.06818181818181818 0.06818181818181818 0.29545454545454547 0.022727272727272728 0.022727272727272728 0.022727272727272728 0.06818181818181818 0.022727272727272728 0.022727272727272728 0.022727272727272728 0.20454545454545456 0.022727272727272728 
0.05555555555555555 0.05555555555555555 0.05555555555555555 0.05555555555555555 0.05555555555555555 0.05555555555555555 0.05555555555555555 0.05555555555555555 0.05555555555555555 0.05555555555555555 0.05555555555555555 0.05555555555555555 0.05555555555555555 0.05555555555555555 0.05555555555555555 0.05555555555555555 0.05555555555555555 0.05555555555555555 
0.05555555555555555 0.05555555555555555 0.05555555555555555 0.05555555555555555 0.05555555555555555 0.05555555555555555 0.05555555555555555 0.05555555555555555 0.05555555555555555 0.05555555555555555 0.05555555555555555 0.05555555555555555 0.05555555555555555 0.05555555555555555 0.05555555555555555 0.05555555555555555 0.05555555555555555 0.05555555555555555 
0.05 0.05 0.05 0.05 0.05 0.05 0.15 0.05 0.05 0.05 0.05 0.05 0.05 0.05 0.05 0.05 0.05 0.05 
0.041666666666666664 0.041666666666666664 0.041666666666666664 0.041666666666666664 0.041666666666666664 0.041666666666666664 0.041666666666666664 0.041666666666666664 0.125 0.041666666666666664 0.041666666666666664 0.041666666666666664 0.125 0.125 0.041666666666666664 0.041666666666666664 0.041666666666666664 0.041666666666666664 
0.05555555555555555 0.05555555555555555 0.05555555555555555 0.05555555555555555 0.05555555555555555 0.05555555555555555 0.05555555555555555 0.05555555555555555 0.05555555555555555 0.05555555555555555 0.05555555555555555 0.05555555555555555 0.05555555555555555 0.05555555555555555 0.05555555555555555 0.05555555555555555 0.05555555555555555 0.05555555555555555 
0.05555555555555555 0.05555555555555555 0.05555555555555555 0.05555555555555555 0.05555555555555555 0.05555555555555555 0.05555555555555555 0.05555555555555555 0.05555555555555555 0.05555555555555555 0.05555555555555555 0.05555555555555555 0.05555555555555555 0.05555555555555555 0.05555555555555555 0.05555555555555555 0.05555555555555555 0.05555555555555555 
0.045454545454545456 0.045454545454545456 0.13636363636363635 0.045454545454545456 0.045454545454545456 0.045454545454545456 0.045454545454545456 0.045454545454545456 0.045454545454545456 0.045454545454545456 0.045454545454545456 0.045454545454545456 0.13636363636363635 0.045454545454545456 0.045454545454545456 0.045454545454545456 0.045454545454545456 0.045454545454545456 
0.05 0.05 0.05 0.05 0.05 0.05 0.05 0.05 0.05 0.05 0.05 0.05 0.15 0.05 0.05 0.05 0.05 0.05 
0.05555555555555555 0.05555555555555555 0.05555555555555555 0.05555555555555555 0.05555555555555555 0.05555555555555555 0.05555555555555555 0.05555555555555555 0.05555555555555555 0.05555555555555555 0.05555555555555555 0.05555555555555555 0.05555555555555555 0.05555555555555555 0.05555555555555555 0.05555555555555555 0.05555555555555555 0.05555555555555555 
0.05555555555555555 0.05555555555555555 0.05555555555555555 0.05555555555555555 0.05555555555555555 0.05555555555555555 0.05555555555555555 0.05555555555555555 0.05555555555555555 0.05555555555555555 0.05555555555555555 0.05555555555555555 0.05555555555555555 0.05555555555555555 0.05555555555555555 0.05555555555555555 0.05555555555555555 0.05555555555555555 
0.05555555555555555 0.05555555555555555 0.05555555555555555 0.05555555555555555 0.05555555555555555 0.05555555555555555 0.05555555555555555 0.05555555555555555 0.05555555555555555 0.05555555555555555 0.05555555555555555 0.05555555555555555 0.05555555555555555 0.05555555555555555 0.05555555555555555 0.05555555555555555 0.05555555555555555 0.05555555555555555 
0.05 0.05 0.05 0.05 0.05 0.05 0.05 0.05 0.05 0.05 0.05 0.05 0.05 0.05 0.05 0.15 0.05 0.05 
0.05555555555555555 0.05555555555555555 0.05555555555555555 0.05555555555555555 0.05555555555555555 0.05555555555555555 0.05555555555555555 0.05555555555555555 0.05555555555555555 0.05555555555555555 0.05555555555555555 0.05555555555555555 0.05555555555555555 0.05555555555555555 0.05555555555555555 0.05555555555555555 0.05555555555555555 0.05555555555555555 
0.05555555555555555 0.05555555555555555 0.05555555555555555 0.05555555555555555 0.05555555555555555 0.05555555555555555 0.05555555555555555 0.05555555555555555 0.05555555555555555 0.05555555555555555 0.05555555555555555 0.05555555555555555 0.05555555555555555 0.05555555555555555 0.05555555555555555 0.05555555555555555 0.05555555555555555 0.05555555555555555 
0.05555555555555555 0.05555555555555555 0.05555555555555555 0.05555555555555555 0.05555555555555555 0.05555555555555555 0.05555555555555555 0.05555555555555555 0.05555555555555555 0.05555555555555555 0.05555555555555555 0.05555555555555555 0.05555555555555555 0.05555555555555555 0.05555555555555555 0.05555555555555555 0.05555555555555555 0.05555555555555555 
0.05 0.05 0.05 0.05 0.05 0.05 0.05 0.05 0.05 0.05 0.05 0.05 0.05 0.05 0.05 0.05 0.05 0.15 
</TABLE>
</DEFINITION>
<DEFINITION>
<FOR>bedrooms</FOR>
	<GIVEN>beds</GIVEN>
	<GIVEN>room_type</GIVEN>
<TABLE>
0.9096715328467153 0.05748175182481752 0.017335766423357664 0.004562043795620438 0.004562043795620438 9.124087591240876E-4 9.124087591240876E-4 9.124087591240876E-4 9.124087591240876E-4 9.124087591240876E-4 9.124087591240876E-4 9.124087591240876E-4 
0.7664319248826291 0.15375586854460094 0.05046948356807512 0.015258215962441314 0.005868544600938967 0.0011737089201877935 0.0011737089201877935 0.0011737089201877935 0.0011737089201877935 0.0011737089201877935 0.0011737089201877935 0.0011737089201877935 
0.9873914840843324 0.007978503513848698 0.0031004547333608927 0.0010334849111202976 1.240181893344357E-4 4.133939644481191E-5 1.240181893344357E-4 4.133939644481191E-5 4.133939644481191E-5 4.133939644481191E-5 4.133939644481191E-5 4.133939644481191E-5 
0.9625222599967622 0.03213534078031407 0.0029949813825481627 8.903998704872916E-4 5.666180994010038E-4 8.094544277157196E-5 2.4283632831471587E-4 8.094544277157196E-5 8.094544277157196E-5 2.4283632831471587E-4 8.094544277157196E-5 8.094544277157196E-5 
0.8575510204081632 0.13591836734693877 0.002857142857142857 4.0816326530612246E-4 4.0816326530612246E-4 4.0816326530612246E-4 4.0816326530612246E-4 4.0816326530612246E-4 4.0816326530612246E-4 4.0816326530612246E-4 4.0816326530612246E-4 4.0816326530612246E-4 
0.4533563171770432 0.5328533765970391 0.011863719326708579 0.0011153924153315758 1.0139931048468871E-4 1.0139931048468871E-4 1.0139931048468871E-4 1.0139931048468871E-4 1.0139931048468871E-4 1.0139931048468871E-4 1.0139931048468871E-4 1.0139931048468871E-4 
0.5328282828282829 0.29545454545454547 0.14393939393939395 0.007575757575757576 0.0025252525252525255 0.0025252525252525255 0.0025252525252525255 0.0025252525252525255 0.0025252525252525255 0.0025252525252525255 0.0025252525252525255 0.0025252525252525255 
0.1407723394701392 0.4991019308486753 0.3531656937584194 0.004714863044454423 2.24517287831163E-4 6.73551863493489E-4 2.24517287831163E-4 2.24517287831163E-4 2.24517287831163E-4 2.24517287831163E-4 2.24517287831163E-4 2.24517287831163E-4 
0.3719512195121951 0.22560975609756098 0.20121951219512196 0.1402439024390244 0.018292682926829267 0.006097560975609756 0.006097560975609756 0.006097560975609756 0.006097560975609756 0.006097560975609756 0.006097560975609756 0.006097560975609756 
0.08702213279678069 0.2892354124748491 0.38782696177062376 0.22484909456740443 0.006539235412474849 5.030181086519115E-4 5.030181086519115E-4 0.0015090543259557343 5.030181086519115E-4 5.030181086519115E-4 5.030181086519115E-4 5.030181086519115E-4 
0.225 0.175 0.275 0.075 0.075 0.025 0.025 0.025 0.025 0.025 0.025 0.025 
0.04583333333333333 0.2125 0.37916666666666665 0.24583333333333332 0.10138888888888889 0.004166666666666667 0.001388888888888889 0.004166666666666667 0.001388888888888889 0.001388888888888889 0.001388888888888889 0.001388888888888889 
0.275 0.225 0.125 0.175 0.025 0.025 0.025 0.025 0.025 0.025 0.025 0.025 
0.04261363636363636 0.1903409090909091 0.3039772727272727 0.23011363636363635 0.13920454545454544 0.07670454545454546 0.002840909090909091 0.002840909090909091 0.002840909090909091 0.002840909090909091 0.002840909090909091 0.002840909090909091 
0.05555555555555555 0.16666666666666666 0.16666666666666666 0.05555555555555555 0.05555555555555555 0.16666666666666666 0.05555555555555555 0.05555555555555555 0.05555555555555555 0.05555555555555555 0.05555555555555555 0.05555555555555555 
0.006329113924050633 0.06962025316455696 0.25949367088607594 0.3227848101265823 0.22151898734177214 0.04430379746835443 0.04430379746835443 0.006329113924050633 0.006329113924050633 0.006329113924050633 0.006329113924050633 0.006329113924050633 
0.05555555555555555 0.16666666666666666 0.05555555555555555 0.16666666666666666 0.16666666666666666 0.05555555555555555 0.05555555555555555 0.05555555555555555 0.05555555555555555 0.05555555555555555 0.05555555555555555 0.05555555555555555 
0.029411764705882353 0.06862745098039216 0.08823529411764706 0.22549019607843138 0.16666666666666666 0.14705882352941177 0.049019607843137254 0.18627450980392157 0.00980392156862745 0.00980392156862745 0.00980392156862745 0.00980392156862745 
0.05555555555555555 0.16666666666666666 0.16666666666666666 0.16666666666666666 0.05555555555555555 0.05555555555555555 0.05555555555555555 0.05555555555555555 0.05555555555555555 0.05555555555555555 0.05555555555555555 0.05555555555555555 
0.018518518518518517 0.12962962962962962 0.16666666666666666 0.35185185185185186 0.09259259259259259 0.05555555555555555 0.018518518518518517 0.05555555555555555 0.05555555555555555 0.018518518518518517 0.018518518518518517 0.018518518518518517 
0.08333333333333333 0.08333333333333333 0.08333333333333333 0.08333333333333333 0.08333333333333333 0.08333333333333333 0.08333333333333333 0.08333333333333333 0.08333333333333333 0.08333333333333333 0.08333333333333333 0.08333333333333333 
0.03333333333333333 0.1 0.1 0.23333333333333334 0.16666666666666666 0.03333333333333333 0.1 0.1 0.03333333333333333 0.03333333333333333 0.03333333333333333 0.03333333333333333 
0.08333333333333333 0.08333333333333333 0.08333333333333333 0.08333333333333333 0.08333333333333333 0.08333333333333333 0.08333333333333333 0.08333333333333333 0.08333333333333333 0.08333333333333333 0.08333333333333333 0.08333333333333333 
0.03571428571428571 0.03571428571428571 0.17857142857142858 0.10714285714285714 0.10714285714285714 0.03571428571428571 0.10714285714285714 0.10714285714285714 0.10714285714285714 0.10714285714285714 0.03571428571428571 0.03571428571428571 
0.0625 0.1875 0.0625 0.1875 0.0625 0.0625 0.0625 0.0625 0.0625 0.0625 0.0625 0.0625 
0.038461538461538464 0.038461538461538464 0.19230769230769232 0.038461538461538464 0.19230769230769232 0.11538461538461539 0.11538461538461539 0.038461538461538464 0.11538461538461539 0.038461538461538464 0.038461538461538464 0.038461538461538464 
0.08333333333333333 0.08333333333333333 0.08333333333333333 0.08333333333333333 0.08333333333333333 0.08333333333333333 0.08333333333333333 0.08333333333333333 0.08333333333333333 0.08333333333333333 0.08333333333333333 0.08333333333333333 
0.05555555555555555 0.05555555555555555 0.05555555555555555 0.05555555555555555 0.05555555555555555 0.05555555555555555 0.16666666666666666 0.16666666666666666 0.16666666666666666 0.05555555555555555 0.05555555555555555 0.05555555555555555 
0.08333333333333333 0.08333333333333333 0.08333333333333333 0.08333333333333333 0.08333333333333333 0.08333333333333333 0.08333333333333333 0.08333333333333333 0.08333333333333333 0.08333333333333333 0.08333333333333333 0.08333333333333333 
0.05555555555555555 0.05555555555555555 0.05555555555555555 0.2777777777777778 0.05555555555555555 0.05555555555555555 0.05555555555555555 0.05555555555555555 0.05555555555555555 0.16666666666666666 0.05555555555555555 0.05555555555555555 
0.08333333333333333 0.08333333333333333 0.08333333333333333 0.08333333333333333 0.08333333333333333 0.08333333333333333 0.08333333333333333 0.08333333333333333 0.08333333333333333 0.08333333333333333 0.08333333333333333 0.08333333333333333 
0.0625 0.0625 0.0625 0.0625 0.3125 0.0625 0.0625 0.0625 0.0625 0.0625 0.0625 0.0625 
0.08333333333333333 0.08333333333333333 0.08333333333333333 0.08333333333333333 0.08333333333333333 0.08333333333333333 0.08333333333333333 0.08333333333333333 0.08333333333333333 0.08333333333333333 0.08333333333333333 0.08333333333333333 
0.07142857142857142 0.07142857142857142 0.07142857142857142 0.07142857142857142 0.21428571428571427 0.07142857142857142 0.07142857142857142 0.07142857142857142 0.07142857142857142 0.07142857142857142 0.07142857142857142 0.07142857142857142 
0.07142857142857142 0.07142857142857142 0.07142857142857142 0.07142857142857142 0.07142857142857142 0.07142857142857142 0.07142857142857142 0.21428571428571427 0.07142857142857142 0.07142857142857142 0.07142857142857142 0.07142857142857142 
0.08333333333333333 0.08333333333333333 0.08333333333333333 0.08333333333333333 0.08333333333333333 0.08333333333333333 0.08333333333333333 0.08333333333333333 0.08333333333333333 0.08333333333333333 0.08333333333333333 0.08333333333333333 
0.08333333333333333 0.08333333333333333 0.08333333333333333 0.08333333333333333 0.08333333333333333 0.08333333333333333 0.08333333333333333 0.08333333333333333 0.08333333333333333 0.08333333333333333 0.08333333333333333 0.08333333333333333 
0.07142857142857142 0.07142857142857142 0.07142857142857142 0.07142857142857142 0.07142857142857142 0.07142857142857142 0.07142857142857142 0.07142857142857142 0.07142857142857142 0.07142857142857142 0.21428571428571427 0.07142857142857142 
0.08333333333333333 0.08333333333333333 0.08333333333333333 0.08333333333333333 0.08333333333333333 0.08333333333333333 0.08333333333333333 0.08333333333333333 0.08333333333333333 0.08333333333333333 0.08333333333333333 0.08333333333333333 
0.07142857142857142 0.07142857142857142 0.07142857142857142 0.07142857142857142 0.07142857142857142 0.07142857142857142 0.07142857142857142 0.07142857142857142 0.07142857142857142 0.07142857142857142 0.07142857142857142 0.21428571428571427 
</TABLE>
</DEFINITION>
<DEFINITION>
<FOR>beds</FOR>
	<GIVEN>accommodates</GIVEN>
<TABLE>
0.0495136186770428 0.9131322957198443 0.030058365758754865 0.0035992217898832683 0.0016536964980544747 9.72762645914397E-5 6.809338521400778E-4 9.72762645914397E-5 9.72762645914397E-5 9.72762645914397E-5 9.72762645914397E-5 9.72762645914397E-5 9.72762645914397E-5 9.72762645914397E-5 9.72762645914397E-5 9.72762645914397E-5 9.72762645914397E-5 9.72762645914397E-5 9.72762645914397E-5 9.72762645914397E-5 
0.03489822974342977 0.8598221944942681 0.09440068626686422 0.007291585432426109 0.00167667472510333 5.848865320127896E-4 5.848865320127896E-4 1.1697730640255791E-4 1.1697730640255791E-4 3.89924354675193E-5 3.89924354675193E-5 3.89924354675193E-5 1.1697730640255791E-4 3.89924354675193E-5 3.89924354675193E-5 3.89924354675193E-5 3.89924354675193E-5 3.89924354675193E-5 3.89924354675193E-5 3.89924354675193E-5 
0.03299930891499654 0.4977539737387699 0.40376641326883206 0.05269523151347616 0.009156876295784381 8.638562543192813E-4 1.7277125086385625E-4 1.7277125086385625E-4 1.7277125086385625E-4 1.7277125086385625E-4 5.183137525915688E-4 1.7277125086385625E-4 1.7277125086385625E-4 1.7277125086385625E-4 1.7277125086385625E-4 1.7277125086385625E-4 1.7277125086385625E-4 1.7277125086385625E-4 1.7277125086385625E-4 1.7277125086385625E-4 
0.02163616792249731 0.2054897739504844 0.5919268030139936 0.13832077502691065 0.035199138858988156 0.0033369214208826695 0.002045209903121636 3.2292787944025834E-4 3.2292787944025834E-4 1.0764262648008612E-4 1.0764262648008612E-4 1.0764262648008612E-4 3.2292787944025834E-4 1.0764262648008612E-4 1.0764262648008612E-4 1.0764262648008612E-4 1.0764262648008612E-4 1.0764262648008612E-4 1.0764262648008612E-4 1.0764262648008612E-4 
0.016471449487554905 0.05966325036603221 0.3964128843338214 0.37298682284040996 0.11749633967789165 0.023060029282576867 0.004758418740849195 0.0010980966325036604 0.0018301610541727673 0.0018301610541727673 3.6603221083455345E-4 0.0010980966325036604 3.6603221083455345E-4 3.6603221083455345E-4 3.6603221083455345E-4 3.6603221083455345E-4 3.6603221083455345E-4 3.6603221083455345E-4 3.6603221083455345E-4 3.6603221083455345E-4 
0.0163566388710712 0.027902501603592048 0.1767158434894163 0.49422706863373955 0.19788325849903785 0.05099422706863374 0.026619627966645285 0.003527902501603592 9.621552277100705E-4 0.001603592046183451 3.2071840923669016E-4 3.2071840923669016E-4 3.2071840923669016E-4 3.2071840923669016E-4 3.2071840923669016E-4 3.2071840923669016E-4 3.2071840923669016E-4 3.2071840923669016E-4 3.2071840923669016E-4 3.2071840923669016E-4 
0.0016129032258064516 0.017741935483870968 0.06935483870967742 0.3338709677419355 0.3403225806451613 0.1629032258064516 0.024193548387096774 0.020967741935483872 0.008064516129032258 0.004838709677419355 0.0016129032258064516 0.0016129032258064516 0.0016129032258064516 0.0016129032258064516 0.0016129032258064516 0.0016129032258064516 0.0016129032258064516 0.0016129032258064516 0.0016129032258064516 0.0016129032258064516 
0.0200845665961945 0.009513742071881607 0.03276955602536998 0.2124735729386892 0.41331923890063427 0.17653276955602537 0.07293868921775898 0.017970401691331923 0.024312896405919663 0.003171247357293869 0.0010570824524312897 0.0010570824524312897 0.003171247357293869 0.0010570824524312897 0.005285412262156448 0.0010570824524312897 0.0010570824524312897 0.0010570824524312897 0.0010570824524312897 0.0010570824524312897 
0.0234375 0.0234375 0.0234375 0.1328125 0.2578125 0.2421875 0.1328125 0.0390625 0.0078125 0.0390625 0.0078125 0.0078125 0.0078125 0.0078125 0.0078125 0.0078125 0.0078125 0.0078125 0.0078125 0.0078125 
0.03089887640449438 0.047752808988764044 0.019662921348314606 0.05337078651685393 0.2050561797752809 0.2949438202247191 0.14887640449438203 0.10393258426966293 0.03651685393258427 0.025280898876404494 0.008426966292134831 0.0028089887640449437 0.0028089887640449437 0.0028089887640449437 0.0028089887640449437 0.0028089887640449437 0.0028089887640449437 0.0028089887640449437 0.0028089887640449437 0.0028089887640449437 
0.03571428571428571 0.011904761904761904 0.011904761904761904 0.03571428571428571 0.10714285714285714 0.2261904761904762 0.25 0.10714285714285714 0.05952380952380952 0.03571428571428571 0.011904761904761904 0.011904761904761904 0.011904761904761904 0.011904761904761904 0.011904761904761904 0.011904761904761904 0.011904761904761904 0.011904761904761904 0.011904761904761904 0.011904761904761904 
0.005434782608695652 0.005434782608695652 0.02717391304347826 0.04891304347826087 0.1358695652173913 0.1793478260869565 0.266304347826087 0.125 0.07065217391304347 0.04891304347826087 0.005434782608695652 0.016304347826086956 0.02717391304347826 0.005434782608695652 0.005434782608695652 0.005434782608695652 0.005434782608695652 0.005434782608695652 0.005434782608695652 0.005434782608695652 
0.015625 0.015625 0.078125 0.015625 0.046875 0.046875 0.140625 0.296875 0.078125 0.078125 0.015625 0.046875 0.015625 0.015625 0.015625 0.015625 0.015625 0.015625 0.015625 0.015625 
0.019230769230769232 0.019230769230769232 0.019230769230769232 0.019230769230769232 0.019230769230769232 0.17307692307692307 0.09615384615384616 0.17307692307692307 0.09615384615384616 0.057692307692307696 0.09615384615384616 0.019230769230769232 0.057692307692307696 0.019230769230769232 0.019230769230769232 0.019230769230769232 0.019230769230769232 0.019230769230769232 0.019230769230769232 0.019230769230769232 
0.027777777777777776 0.08333333333333333 0.027777777777777776 0.08333333333333333 0.1388888888888889 0.027777777777777776 0.027777777777777776 0.08333333333333333 0.08333333333333333 0.027777777777777776 0.1388888888888889 0.027777777777777776 0.027777777777777776 0.027777777777777776 0.027777777777777776 0.027777777777777776 0.027777777777777776 0.027777777777777776 0.027777777777777776 0.027777777777777776 
0.04430379746835443 0.06962025316455696 0.04430379746835443 0.04430379746835443 0.0949367088607595 0.056962025316455694 0.04430379746835443 0.06962025316455696 0.14556962025316456 0.056962025316455694 0.04430379746835443 0.06962025316455696 0.04430379746835443 0.04430379746835443 0.0189873417721519 0.03164556962025317 0.0189873417721519 0.0189873417721519 0.0189873417721519 0.0189873417721519 
</TABLE>
</DEFINITION>
<DEFINITION>
<FOR>has_availability</FOR>
	<GIVEN>avg_rating</GIVEN>
	<GIVEN>hot_water</GIVEN>
	<GIVEN>cooking_basics</GIVEN>
<TABLE>
0.8234457092819615 0.17655429071803852 
0.98828125 0.01171875 
0.9636619718309859 0.03633802816901408 
0.9952932657494569 0.004706734250543085 
0.9037473055877964 0.09625269441220362 
0.9764207980652962 0.02357920193470375 
0.9698896353166987 0.030110364683301343 
0.988479262672811 0.01152073732718894 
</TABLE>
</DEFINITION>
<DEFINITION>
<FOR>instant_bookable</FOR>
	<GIVEN>avg_rating</GIVEN>
	<GIVEN>has_availability</GIVEN>
	<GIVEN>n_cluster</GIVEN>
<TABLE>
0.7833761232349166 0.21662387676508343 
0.6605117766792672 0.33948822332073275 
0.6663003663003663 0.3336996336996337 
0.8722098214285714 0.12779017857142858 
0.7566964285714286 0.24330357142857142 
0.9982817869415808 0.001718213058419244 
0.9981949458483754 0.0018050541516245488 
0.9983443708609272 0.0016556291390728477 
0.9444444444444444 0.05555555555555555 
0.9444444444444444 0.05555555555555555 
0.7195762404925752 0.2804237595074248 
0.6845787436737124 0.3154212563262876 
0.7392537313432835 0.2607462686567164 
0.7994951712028094 0.20050482879719053 
0.750277932184547 0.24972206781545303 
0.9988452655889145 0.0011547344110854503 
0.996 0.004 
0.9971590909090909 0.002840909090909091 
0.993421052631579 0.006578947368421052 
0.9861111111111112 0.013888888888888888 
</TABLE>
</DEFINITION>
<DEFINITION>
<FOR>avg_rating</FOR>
<TABLE>
0.2826211885606112 0.7173788114393889 
</TABLE>
</DEFINITION>
<DEFINITION>
<FOR>air_conditioning</FOR>
	<GIVEN>avg_rating</GIVEN>
	<GIVEN>property_type</GIVEN>
	<GIVEN>heating</GIVEN>
<TABLE>
0.5344827586206896 0.46551724137931033 
0.22227342549923196 0.7777265745007681 
0.47791798107255523 0.5220820189274448 
0.10546743165710429 0.8945325683428957 
0.45 0.55 
0.7141025641025641 0.2858974358974359 
0.21428571428571427 0.7857142857142857 
0.10869565217391304 0.8913043478260869 
0.6477272727272727 0.3522727272727273 
0.2777777777777778 0.7222222222222222 
0.3235294117647059 0.6764705882352942 
0.04042553191489362 0.9595744680851064 
0.5 0.5 
0.11403508771929824 0.8859649122807017 
0.45 0.55 
0.16115702479338842 0.8388429752066116 
0.4867957746478873 0.5132042253521126 
0.16070923989827635 0.8392907601017237 
0.4027431421446384 0.5972568578553616 
0.07289793165467626 0.9271020683453237 
0.5 0.5 
0.28914728682170543 0.7108527131782946 
0.1 0.9 
0.04310344827586207 0.9568965517241379 
0.58 0.42 
0.19095665171898354 0.8090433482810164 
0.525 0.475 
0.017355371900826446 0.9826446280991735 
0.40625 0.59375 
0.07697547683923706 0.9230245231607629 
0.4722222222222222 0.5277777777777778 
0.07108433734939759 0.9289156626506024 
</TABLE>
</DEFINITION>
<DEFINITION>
<FOR>long_term_stays_allowed</FOR>
	<GIVEN>avg_rating</GIVEN>
	<GIVEN>security_cameras_on_property</GIVEN>
	<GIVEN>kitchen</GIVEN>
<TABLE>
0.05046948356807512 0.9495305164319249 
0.03659580539306606 0.9634041946069339 
0.2426470588235294 0.7573529411764706 
0.08420441347270616 0.9157955865272939 
0.14369900271985495 0.8563009972801451 
0.0578086814849296 0.9421913185150704 
0.26832844574780057 0.7316715542521994 
0.11657032755298652 0.8834296724470135 
</TABLE>
</DEFINITION>
<DEFINITION>
<FOR>heating</FOR>
	<GIVEN>avg_rating</GIVEN>
	<GIVEN>central_heating</GIVEN>
	<GIVEN>hangers</GIVEN>
<TABLE>
0.19996052112120016 0.8000394788787999 
0.046497479575873454 0.9535025204241265 
0.9444444444444444 0.05555555555555555 
0.9927536231884058 0.007246376811594203 
0.10817515099223468 0.8918248490077653 
0.02872689688715953 0.9712731031128404 
0.9545454545454546 0.045454545454545456 
0.9961538461538462 0.0038461538461538464 
</TABLE>
</DEFINITION>
<DEFINITION>
<FOR>wifi</FOR>
	<GIVEN>avg_rating</GIVEN>
	<GIVEN>heating</GIVEN>
	<GIVEN>kitchen</GIVEN>
<TABLE>
0.6327160493827161 0.36728395061728397 
0.102322206095791 0.897677793904209 
0.0677710843373494 0.9322289156626506 
0.032237849881632086 0.967762150118368 
0.41883116883116883 0.5811688311688312 
0.0734375 0.9265625 
0.016666666666666666 0.9833333333333333 
0.013787790234312735 0.9862122097656872 
</TABLE>
</DEFINITION>
<DEFINITION>
<FOR>kitchen</FOR>
	<GIVEN>avg_rating</GIVEN>
	<GIVEN>cooking_basics</GIVEN>
	<GIVEN>property_type</GIVEN>
<TABLE>
0.09431701472098597 0.905682985279014 
0.04297205757832345 0.9570279424216765 
0.037815126050420166 0.9621848739495799 
0.025423728813559324 0.9745762711864406 
0.21731448763250882 0.7826855123674912 
0.05337078651685393 0.9466292134831461 
0.07657657657657657 0.9234234234234234 
0.03205128205128205 0.967948717948718 
0.007152145643693108 0.9928478543563068 
0.014705882352941176 0.9852941176470589 
0.011627906976744186 0.9883720930232558 
0.029411764705882353 0.9705882352941176 
0.03289473684210526 0.9671052631578947 
0.02027027027027027 0.9797297297297297 
0.01948051948051948 0.9805194805194806 
0.009433962264150943 0.9905660377358491 
0.14238636363636364 0.8576136363636364 
0.045454545454545456 0.9545454545454546 
0.34347826086956523 0.6565217391304348 
0.076 0.924 
0.39578005115089515 0.6042199488491049 
0.058695652173913045 0.941304347826087 
0.09030837004405286 0.9096916299559471 
0.0825242718446602 0.9174757281553398 
0.02048675292667899 0.979513247073321 
0.008766968325791855 0.9912330316742082 
0.014195583596214511 0.9858044164037855 
0.0017482517482517483 0.9982517482517482 
0.056259904912836764 0.9437400950871633 
0.01139240506329114 0.9886075949367089 
0.004780114722753346 0.9952198852772467 
0.004545454545454545 0.9954545454545455 
</TABLE>
</DEFINITION>
<DEFINITION>
<FOR>smoke_alarm</FOR>
	<GIVEN>avg_rating</GIVEN>
	<GIVEN>fire_extinguisher</GIVEN>
	<GIVEN>n_cluster</GIVEN>
<TABLE>
0.40168014934660856 0.5983198506533914 
0.11024720893141945 0.8897527910685805 
0.2831743278404163 0.7168256721595837 
0.15149006622516556 0.8485099337748344 
0.13306451612903225 0.8669354838709677 
0.12190082644628099 0.878099173553719 
0.018625827814569538 0.9813741721854304 
0.04182879377431906 0.958171206225681 
0.03156146179401993 0.96843853820598 
0.0045871559633027525 0.9954128440366973 
0.27515826238812485 0.7248417376118751 
0.0673777315296566 0.9326222684703434 
0.1683697166744078 0.8316302833255922 
0.08560399636693915 0.9143960036330608 
0.08298611111111111 0.9170138888888889 
0.061499272197962154 0.9385007278020379 
0.013124199743918053 0.9868758002560819 
0.014202476329206118 0.9857975236707939 
0.014609053497942387 0.9853909465020576 
0.012989972652689152 0.9870100273473108 
</TABLE>
</DEFINITION>
<DEFINITION>
<FOR>dryer</FOR>
	<GIVEN>washer</GIVEN>
	<GIVEN>n_cluster</GIVEN>
<TABLE>
0.9921875 0.0078125 
0.9461471103327496 0.053852889667250436 
0.9852530270102453 0.014746972989754735 
0.9843626806833115 0.015637319316688568 
0.9832796132151491 0.016720386784850928 
0.12106918238993711 0.8789308176100629 
0.02072324966974901 0.979276750330251 
0.047969543147208124 0.9520304568527919 
0.05635838150289017 0.9436416184971098 
0.040853217642805494 0.9591467823571945 
</TABLE>
</DEFINITION>
<DEFINITION>
<FOR>tv_with_standard_cable</FOR>
	<GIVEN>cable_tv</GIVEN>
	<GIVEN>freezer</GIVEN>
	<GIVEN>window_ac_unit</GIVEN>
<TABLE>
0.9999767322816324 2.326771836753688E-5 
0.990909090909091 0.00909090909090909 
0.9990952955367913 9.047044632086852E-4 
0.995049504950495 0.0049504950495049506 
0.0027467659046606415 0.9972532340953394 
0.4791666666666667 0.5208333333333334 
0.16493955094991364 0.8350604490500864 
0.6375 0.3625 
</TABLE>
</DEFINITION>
<DEFINITION>
<FOR>washer</FOR>
	<GIVEN>avg_rating</GIVEN>
	<GIVEN>n_cluster</GIVEN>
	<GIVEN>host_is_superhost</GIVEN>
<TABLE>
0.9768770402611534 0.023122959738846573 
0.9545454545454546 0.045454545454545456 
0.2533240997229917 0.7466759002770084 
0.06132075471698113 0.9386792452830188 
0.5953105968331304 0.4046894031668697 
0.46 0.54 
0.7549778761061947 0.24502212389380532 
0.5 0.5 
0.8913043478260869 0.10869565217391304 
0.7309523809523809 0.26904761904761904 
0.8445289022450062 0.15547109775499382 
0.8909395973154363 0.10906040268456375 
0.04551429510351627 0.9544857048964838 
0.1893424036281179 0.8106575963718821 
0.6405782652043869 0.3594217347956132 
0.5909090909090909 0.4090909090909091 
0.6734981565820863 0.32650184341791366 
0.8333333333333334 0.16666666666666666 
0.42142857142857143 0.5785714285714286 
0.6395903479236813 0.36040965207631875 
</TABLE>
</DEFINITION>
<DEFINITION>
<FOR>carbon_monoxide_alarm</FOR>
	<GIVEN>smoke_alarm</GIVEN>
	<GIVEN>n_cluster</GIVEN>
	<GIVEN>fire_extinguisher</GIVEN>
<TABLE>
0.9640608604407135 0.035939139559286466 
0.8728070175438597 0.12719298245614036 
0.8362068965517241 0.16379310344827586 
0.5465116279069767 0.45348837209302323 
0.9658925979680697 0.034107402031930335 
0.7682926829268293 0.23170731707317074 
0.9232142857142858 0.07678571428571429 
0.8111111111111111 0.18888888888888888 
0.8933823529411765 0.10661764705882353 
0.8448275862068966 0.15517241379310345 
0.352288650163475 0.647711349836525 
0.21271637816245006 0.78728362183755 
0.17631709741550697 0.8236829025844931 
0.09075907590759076 0.9092409240924092 
0.24245319067634696 0.757546809323653 
0.11078006500541712 0.8892199349945829 
0.18626286619160728 0.8137371338083927 
0.07241250930752048 0.9275874906924795 
0.1565126050420168 0.8434873949579832 
0.044195250659630606 0.9558047493403694 
</TABLE>
</DEFINITION>
<DEFINITION>
<FOR>cable_tv</FOR>
	<GIVEN>avg_rating</GIVEN>
	<GIVEN>extra_pillows_and_blankets</GIVEN>
	<GIVEN>price_range</GIVEN>
<TABLE>
0.882787630741246 0.11721236925875397 
0.9523638968481375 0.047636103151862466 
0.773828125 0.226171875 
0.95578231292517 0.04421768707482993 
0.7139423076923077 0.2860576923076923 
0.7322064056939501 0.2677935943060498 
0.8708333333333333 0.12916666666666668 
0.37149532710280375 0.6285046728971962 
0.7916666666666666 0.20833333333333334 
0.4393939393939394 0.5606060606060606 
0.8207292370020257 0.17927076299797434 
0.9060329861111112 0.0939670138888889 
0.6967049425861208 0.3032950574138792 
0.9456521739130435 0.05434782608695652 
0.6867816091954023 0.3132183908045977 
0.6482863138260667 0.35171368617393334 
0.763785394932936 0.23621460506706407 
0.4746954076850984 0.5253045923149016 
0.7653061224489796 0.23469387755102042 
0.42207792207792205 0.577922077922078 
</TABLE>
</DEFINITION>
<DEFINITION>
<FOR>tv</FOR>
	<GIVEN>cable_tv</GIVEN>
	<GIVEN>property_type</GIVEN>
	<GIVEN>air_conditioning</GIVEN>
<TABLE>
0.6419953596287703 0.3580046403712297 
0.4388654909186628 0.5611345090813372 
0.5279816513761468 0.4720183486238532 
0.2285943082419613 0.7714056917580386 
0.8243534482758621 0.17564655172413793 
0.5672690763052208 0.4327309236947791 
0.4772727272727273 0.5227272727272727 
0.3260233918128655 0.6739766081871345 
0.6348973607038123 0.3651026392961877 
0.44812680115273773 0.5518731988472623 
0.7678571428571429 0.23214285714285715 
0.14364207221350078 0.8563579277864992 
0.3712121212121212 0.6287878787878788 
0.16634615384615384 0.8336538461538462 
0.5648148148148148 0.4351851851851852 
0.22660818713450293 0.7733918128654971 
0.9976744186046511 0.002325581395348837 
0.9996345029239766 3.654970760233918E-4 
0.9972826086956522 0.002717391304347826 
0.9998430634023855 1.5693659761456373E-4 
0.9642857142857143 0.03571428571428571 
0.9941860465116279 0.005813953488372093 
0.9 0.1 
0.9957627118644068 0.00423728813559322 
0.9932432432432432 0.006756756756756757 
0.9984177215189873 0.0015822784810126582 
0.9375 0.0625 
0.9975490196078431 0.0024509803921568627 
0.98 0.02 
0.9984709480122325 0.0015290519877675841 
0.9375 0.0625 
0.996875 0.003125 
</TABLE>
</DEFINITION>
<DEFINITION>
<FOR>extra_pillows_and_blankets</FOR>
	<GIVEN>avg_rating</GIVEN>
	<GIVEN>refrigerator</GIVEN>
	<GIVEN>coffee_maker</GIVEN>
<TABLE>
0.9813964923782986 0.01860350762170136 
0.6309523809523809 0.36904761904761907 
0.7209976798143851 0.2790023201856148 
0.5784313725490197 0.4215686274509804 
0.9481180642947031 0.051881935705296874 
0.7271944922547332 0.2728055077452668 
0.6994983277591973 0.30050167224080265 
0.47946819252776846 0.5205318074722316 
</TABLE>
</DEFINITION>
<DEFINITION>
<FOR>essentials</FOR>
	<GIVEN>avg_rating</GIVEN>
	<GIVEN>shampoo</GIVEN>
	<GIVEN>iron</GIVEN>
<TABLE>
0.42453798767967144 0.5754620123203286 
0.14477798624140087 0.8552220137585991 
0.07839595375722544 0.9216040462427746 
0.024196827978853194 0.9758031720211469 
0.25426470588235295 0.745735294117647 
0.08296492779251399 0.917035072207486 
0.043021032504780114 0.9569789674952199 
0.010351870764088757 0.9896481292359113 
</TABLE>
</DEFINITION>
<DEFINITION>
<FOR>lock_on_bedroom_door</FOR>
	<GIVEN>property_type</GIVEN>
	<GIVEN>hot_water</GIVEN>
	<GIVEN>hangers</GIVEN>
<TABLE>
0.7571739130434783 0.24282608695652175 
0.5467049576783555 0.4532950423216445 
0.5092054263565892 0.49079457364341084 
0.37063458262350935 0.6293654173764907 
0.999767008387698 2.3299161230195712E-4 
0.9998163115356355 1.836884643644379E-4 
0.999438202247191 5.617977528089888E-4 
0.9999266754656108 7.332453438920662E-5 
0.5512820512820513 0.44871794871794873 
0.36773255813953487 0.6322674418604651 
0.35714285714285715 0.6428571428571429 
0.3277777777777778 0.6722222222222223 
0.9868421052631579 0.013157894736842105 
0.9932432432432432 0.006756756756756757 
0.9893617021276596 0.010638297872340425 
0.9984756097560976 0.001524390243902439 
0.7131979695431472 0.2868020304568528 
0.38344594594594594 0.6165540540540541 
0.28353658536585363 0.7164634146341463 
0.22556053811659194 0.7744394618834081 
